svm_type c_svc
kernel_type rbf
gamma 0.001
nr_class 2
total_sv 19
rho -0.322483
label 1 2
probA -2.48913
probB -0.0597371
nr_sv 12 7
SV
2.188365575861459 1:0.78011738 2:0.75392194 3:0.7392014 4:0.72261569 5:0.72764365 6:0.74613737 7:0.74878632 8:0.75248367 9:0.71749003 10:0.68921395 11:0.68242996 12:0.69125413 13:0.70719841 14:0.71367066 15:0.70946791 16:0.71023074 17:0.70270106 18:0.70298566 19:0.71967363 20:0.73326816 21:0.72659148 22:0.72018337 23:0.72447265 24:0.71223964 25:0.70025414 26:0.71372576 27:0.72751183 28:0.7218264 29:0.69565114 30:0.6627356 31:0.6529054 32:0.64836374 33:0.61975456 34:0.59708167 35:0.58714153 36:0.57975812 37:0.55927472 38:0.5329395 39:0.46475146 40:0.38351071 41:0.3273545 42:0.27651949 43:0.21491814 44:0.14821849 45:0.11288882 46:0.048228284 47:-0.0033086952 48:-0.064726261 49:-0.13392567 50:-0.19838939 51:-0.28699437 52:-0.32809914 53:-0.37460548 54:-0.4450737 55:-0.52607833 56:-0.59073126 57:-0.65468173 58:-0.71757313 59:-0.77696574 60:-0.85799721 61:-0.930893 62:-0.97675366 63:-1.0137524 64:-1.0440902 65:-1.1169918 66:-1.1630926 67:-1.2061138 68:-1.2793344 69:-1.3441482 70:-1.4095687 71:-1.4824728 72:-1.5646737 73:-1.6305716 74:-1.6807861 75:-1.7329242 76:-1.7960632 77:-1.8622271 78:-1.9131238 79:-1.9542946 80:-1.9940504 81:-2.0500622 82:-2.106273 83:-2.1566933 84:-2.1898756 85:-2.2160074 86:-2.2521835 87:-2.2556886 88:-2.2554335 89:-2.2637896 90:-2.2446814 91:-2.2199182 92:-2.2152202 93:-2.2131605 94:-2.214387 95:-2.2085504 96:-2.2204663 97:-2.2231441 98:-2.2288699 99:-2.2283163 100:-2.2128879 101:-2.2300827 102:-2.2185379 103:-2.1888452 104:-2.166093 105:-2.163193 106:-2.1269228 107:-2.0908693 108:-2.0751709 109:-2.0787938 110:-2.0468743 111:-2.022272 112:-1.989517 113:-1.9723671 114:-1.9485926 115:-1.9225921 116:-1.8746185 117:-1.8355072 118:-1.8236337 119:-1.8250441 120:-1.8162346 121:-1.8054435 122:-1.794526 123:-1.7809703 124:-1.7853836 125:-1.7933532 126:-1.7878598 127:-1.7899906 128:-1.768833 129:-1.7356948 130:-1.7156434 131:-1.6941808 132:-1.6613421 133:-1.6411494 134:-1.6283158 135:-1.5856341 136:-1.5353546 137:-1.4699766 138:-1.4365819 139:-1.3852071 140:-1.3449582 141:-1.2849484 142:-1.2108812 143:-1.1517214 144:-1.0740691 145:-1.004904 146:-0.9098207 147:-0.86382556 148:-0.82637466 149:-0.7740258 150:-0.72848908 151:-1.0364695 152:-0.97179313 153:-1.0424038 154:-1.0361204 155:-0.94921499 156:-0.97997934 157:-0.72307586 158:-0.6424965 159:-0.69584503 160:-0.769367 161:-0.90366142 162:-0.82472064 163:-0.72836848 164:-0.63738817 165:-0.6386743 166:-0.57743169 167:-0.41127089 168:-0.32280072 169:-0.26404928 170:-0.30095237 171:-0.36212119 172:-0.38276168 173:-0.29541686 174:-0.13961517 175:-0.026862551 176:0.077447417 177:0.079796047 178:0.074230512 179:0.099760693 180:0.11401486 181:0.16539478 182:0.20563329 183:0.31274177 184:0.33032901 185:0.3976858 186:0.5236567 187:0.68257777 188:0.70624686 189:0.64034827 190:0.59192186 191:0.61873122 192:0.851095 193:0.99099815 194:0.79201987 195:0.77973235 196:1.0511636 197:1.5497951 198:1.7404371 199:1.5453237 200:1.3852549 201:1.9838563 202:2.1215779 203:1.9376404 204:1.8641644 205:1.6663244 206:1.6378854 207:1.5429138 208:1.4735006 209:1.5406816 210:1.5082416 211:1.2531047 212:0.99275971 213:0.83883869 214:0.89322242 215:0.89181549 216:0.8621087 217:0.77688991 218:0.86025254 219:0.67424602 220:0.44072523 221:0.24639407 222:0.20978369 223:0.15237455 224:-0.097412958 225:-0.30311304 226:-0.35397983 227:-0.42211671 228:-0.51337554 229:-0.61056695 230:-0.93118757 231:-1.2258269 232:-1.1719513 233:-0.99809709 234:-1.0969329 235:-1.4474412 236:-1.8961011 237:-2.1196848 238:-2.0455832 239:-2.1082165 240:-2.2627667 241:-2.3147314 242:-2.1274525 243:-1.8930521 244:-1.7640795 245:-2.0165152 246:-2.4667087 247:-2.5172599 248:-1.9819394 249:-1.7808282 250:-1.6503842 251:-1.9436366 252:-1.5736351 253:-1.1994788 254:-1.3767808 255:-1.6216603 256:-1.6085576 257:-1.4409048 258:-1.2578206 259:-1.2753124 260:-1.6371126 261:-1.4633843 262:-1.2883627 263:-1.1616797 264:-1.2559246 265:-1.4732731 266:-1.3621224 267:-0.93014546 268:-0.66751828 269:-0.75620636 270:-0.82321406 271:-0.69652268 272:-0.42483282 273:-0.35259286 274:-0.45252377 275:-0.45143278 276:-0.30398639 277:-0.17986031 278:-0.26525528 279:-0.36371718 280:-0.29746712 281:0.050307096 282:0.095438925 283:-0.42373127 284:-0.65926506 285:-0.23207873 286:0.24211442 287:0.15373712 288:-0.27947683 289:-0.33044312 290:0.051287705 291:0.2499979 292:-0.23074169 293:-0.49074269 294:-0.023142422 295:0.75609062 296:0.5821817 297:-0.40046483 298:-0.57866927 299:0.33714527 300:0.53933115 301:-1.1456081 302:-1.03519 303:-1.0626961 304:-1.0225719 305:-0.9531678 306:-0.91802245 307:-0.94417733 308:-0.87909922 309:-0.84239062 310:-0.85533456 311:-0.91998081 312:-0.8312432 313:-0.73240342 314:-0.69947721 315:-0.62762856 316:-0.64372793 317:-0.69914572 318:-0.65027179 319:-0.51932066 320:-0.42671934 321:-0.50322098 322:-0.64452956 323:-0.54216431 324:-0.33559859 325:-0.22064572 326:-0.26832539 327:-0.41097912 328:-0.40960537 329:-0.19830368 330:-0.015136973 331:0.07389253 332:0.093185435 333:0.13949952 334:0.33601157 335:0.69161435 336:0.80116077 337:0.77885445 338:0.60726489 339:0.65448837 340:0.90889223 341:1.0628529 342:0.87724913 343:0.90052854 344:0.87738304 345:1.0954418 346:1.1247857 347:1.0913231 348:1.1485213 349:1.0982505 350:1.1716078 351:1.1285965 352:1.2030481 353:1.028862 354:1.1386015 355:1.2153491 356:1.1060221 357:1.1674267 358:1.2538001 359:1.1951342 360:1.2776175 361:1.147009 362:0.95663317 363:0.90052174 364:0.94879231 365:1.0519736 366:1.0927689 367:0.97006371 368:1.0776405 369:1.118964 370:1.0332147 371:0.80076538 372:0.72885176 373:0.66723979 374:0.52386163 375:0.41103674 376:0.34939612 377:0.32327124 378:0.3918874 379:0.4168268 380:0.30334881 381:0.23659874 382:0.22478305 383:0.19232665 384:0.15069515 385:0.00041189298 386:-0.29007806 387:-0.41139824 388:-0.35490362 389:-0.47826712 390:-0.51902922 391:-0.48095694 392:-0.42144057 393:-0.28408841 394:-0.20234322 395:-0.13723989 396:0.055732178 397:0.053870869 398:0.05575758 399:-0.088009259 400:0.02623214 401:-0.028835093 402:-0.11968908 403:-0.032121888 404:-0.063342981 405:0.038529564 406:-0.016580727 407:0.039397596 408:0.14685585 409:0.36424849 410:0.1207586 411:0.24804655 412:0.26839983 413:0.37157635 414:0.32221628 415:0.30484376 416:0.29919775 417:0.56592046 418:0.73756216 419:0.68495678 420:0.74232773 421:0.97489778 422:0.99064421 423:0.95258698 424:0.96129476 425:1.0674058 426:1.1149441 427:1.0198577 428:0.97058673 429:1.0455252 430:1.1213869 431:1.0334281 432:0.89468919 433:0.94401626 434:1.0158341 435:1.1281847 436:1.0964017 437:1.1267731 438:1.1466191 439:1.1708067 440:1.1927134 441:1.0898898 442:1.0904126 443:1.2749356 444:1.3934175 445:1.3636389 446:1.3172817 447:1.4701623 448:1.5640028 449:1.5703473 450:1.3327369 
1.434200638910968 1:-2.3848299 2:-2.365379 3:-2.3302469 4:-2.299695 5:-2.2848729 6:-2.2384121 7:-2.1916246 8:-2.1634296 9:-2.15682 10:-2.1130288 11:-2.0747397 12:-2.03182 13:-2.0117841 14:-1.9963213 15:-1.9740689 16:-1.9338688 17:-1.9007628 18:-1.8892012 19:-1.8898101 20:-1.876256 21:-1.8582716 22:-1.8370784 23:-1.8141979 24:-1.8108224 25:-1.8093586 26:-1.7976428 27:-1.7911709 28:-1.7653088 29:-1.7289476 30:-1.7000211 31:-1.6697383 32:-1.6296243 33:-1.6051529 34:-1.584989 35:-1.5374362 36:-1.4808936 37:-1.4264265 38:-1.3934418 39:-1.3387882 40:-1.2981991 41:-1.2444651 42:-1.1702033 43:-1.1089884 44:-1.0315872 45:-0.96360824 46:-0.86671215 47:-0.81883588 48:-0.77743649 49:-0.72130299 50:-0.67633629 51:-0.62020298 52:-0.55683703 53:-0.52326559 54:-0.47479609 55:-0.42961596 56:-0.39048125 57:-0.33931408 58:-0.31043056 59:-0.22661501 60:-0.17023656 61:-0.1402631 62:-0.11237206 63:-0.066403526 64:-0.023397656 65:-0.0026523281 66:0.014534889 67:0.028379858 68:0.090121196 69:0.14113953 70:0.18461999 71:0.20911133 72:0.23100485 73:0.2734272 74:0.31206257 75:0.33791402 76:0.33928143 77:0.343971 78:0.3790145 79:0.423644 80:0.45524281 81:0.48978431 82:0.53403041 83:0.5748617 84:0.63601126 85:0.70609276 86:0.75755808 87:0.79890774 88:0.82976192 89:0.84307662 90:0.85740135 91:0.84554103 92:0.84987761 93:0.85956281 94:0.84132927 95:0.83258041 96:0.82444851 97:0.81525817 98:0.8324587 99:0.8212192 100:0.8289699 101:0.80529531 102:0.81431974 103:0.82373727 104:0.82856767 105:0.80864599 106:0.80217703 107:0.79995634 108:0.79073601 109:0.7827652 110:0.78951481 111:0.78708899 112:0.78538573 113:0.77883653 114:0.76267718 115:0.76415536 116:0.778785 117:0.77315577 118:0.76772985 119:0.76343455 120:0.7440095 121:0.74249029 122:0.73019076 123:0.72396195 124:0.72573045 125:0.73328421 126:0.74029337 127:0.72702404 128:0.737259 129:0.75664014 130:0.75674026 131:0.75673502 132:0.76466758 133:0.76409564 134:0.76046362 135:0.77127603 136:0.77451677 137:0.77613615 138:0.77940138 139:0.79037011 140:0.79989164 141:0.79937078 142:0.81184164 143:0.81879135 144:0.82509196 145:0.8284764 146:0.83499091 147:0.83431577 148:0.82984799 149:0.8304264 150:0.83814376 151:-1.769477 152:-1.4241608 153:-1.1166318 154:-1.3035277 155:-1.5664284 156:-1.5511901 157:-1.4036541 158:-1.2398906 159:-1.2750198 160:-1.6286899 161:-1.4801351 162:-1.2892641 163:-1.1501903 164:-1.2657139 165:-1.4873659 166:-1.363053 167:-0.93459732 168:-0.67544015 169:-0.77021229 170:-0.84769162 171:-0.71613087 172:-0.43705835 173:-0.36273358 174:-0.45702325 175:-0.45458099 176:-0.3031783 177:-0.1771324 178:-0.25748709 179:-0.35830165 180:-0.27908855 181:0.077484778 182:0.11627732 183:-0.40410453 184:-0.62245317 185:-0.19336513 186:0.27069904 187:0.20012004 188:-0.19923937 189:-0.23972012 190:0.1086782 191:0.28479506 192:-0.14615937 193:-0.39862622 194:0.026092047 195:0.73920248 196:0.55694565 197:-0.27388621 198:-0.47180756 199:0.3216623 200:0.51274999 201:0.015620916 202:-0.78214001 203:-0.2514996 204:0.67260884 205:0.98206486 206:0.27739734 207:-0.40453126 208:0.023054578 209:0.7245037 210:0.9873688 211:0.74899925 212:0.26378226 213:0.053236761 214:0.57682211 215:0.80319171 216:0.70392362 217:0.49547778 218:0.32827406 219:0.33890673 220:0.3980744 221:0.49510715 222:0.34963948 223:0.051309798 224:-0.16087561 225:-0.15176442 226:-0.084011214 227:-0.088372972 228:-0.23002192 229:-0.36475714 230:-0.40360535 231:-0.33237035 232:-0.22741062 233:-0.28115411 234:-0.56903068 235:-0.81212653 236:-0.6540959 237:-0.35856513 238:-0.1445931 239:-0.10776744 240:-0.11309934 241:-0.068113447 242:0.10442571 243:0.26426575 244:0.23106117 245:0.12530232 246:-0.018289211 247:-0.17327051 248:-0.13928471 249:-0.35601652 250:-0.71160594 251:-0.78505617 252:-0.98914208 253:-1.1994788 254:-1.0832909 255:-1.0290245 256:-0.80640652 257:-0.69754737 258:-0.68462142 259:-0.56027144 260:-0.56575579 261:-0.57313829 262:-0.44637566 263:-0.35907522 264:-0.22145232 265:-0.31498428 266:-0.40236136 267:-0.40904536 268:-0.32643719 269:-0.35348637 270:-0.52416225 271:-0.64379093 272:-0.720005 273:-0.62876037 274:-0.58517534 275:-0.63550408 276:-0.76528869 277:-0.82398816 278:-0.82280416 279:-0.80141824 280:-0.88686005 281:-0.98549565 282:-0.95380012 283:-0.8615409 284:-0.88142323 285:-0.98633462 286:-0.9909219 287:-0.91826768 288:-0.84923734 289:-0.8587006 290:-0.88595847 291:-0.84577833 292:-0.73280942 293:-0.69886193 294:-0.71193397 295:-0.85510248 296:-1.0320903 297:-1.0777816 298:-0.89211513 299:-0.91807252 300:-0.82771797 301:-0.37154497 302:-0.49086476 303:-0.35456829 304:-0.40442802 305:-0.26562826 306:-0.32424321 307:-0.26150529 308:-0.12061451 309:0.19576293 310:-0.15909538 311:0.026661956 312:0.049095831 313:0.22160642 314:0.13493178 315:0.097111583 316:0.082701158 317:0.52919103 318:0.80189357 319:0.74314571 320:0.83471578 321:1.2014629 322:1.2100117 323:1.108906 324:1.1404215 325:1.3314924 326:1.4150315 327:1.3055903 328:1.223653 329:1.303058 330:1.4316693 331:1.3256472 332:1.0923645 333:1.1071537 334:1.2018323 335:1.3572321 336:1.3098846 337:1.3052459 338:1.2954837 339:1.3138373 340:1.3498158 341:1.1863864 342:1.1749308 343:1.398136 344:1.5782195 345:1.546571 346:1.4639607 347:1.623681 348:1.7290969 349:1.7669305 350:1.462177 351:1.4218415 352:1.5759099 353:1.6731017 354:1.4712267 355:1.2459846 356:1.4377969 357:1.5267502 358:1.6663401 359:1.812661 360:1.6220514 361:1.3474154 362:1.3704549 363:1.389603 364:1.5947081 365:1.3333599 366:1.0391782 367:1.1971023 368:1.3020929 369:1.3148473 370:1.1129374 371:0.89075658 372:0.97779543 373:1.0385926 374:1.0084363 375:0.76601362 376:0.54717138 377:0.57241123 378:0.5650881 379:0.47698954 380:0.35339014 381:0.19914189 382:0.075899419 383:0.079038348 384:0.17697331 385:0.16372746 386:0.070227232 387:-0.051312689 388:-0.11051383 389:-0.10409395 390:-0.10712174 391:-0.12215075 392:-0.20304295 393:-0.2346667 394:-0.18412357 395:-0.14209133 396:-0.12846739 397:-0.26179983 398:-0.32152952 399:-0.24797746 400:-0.10678899 401:-0.092489922 402:-0.19686277 403:-0.28610481 404:-0.21327573 405:-0.19079097 406:-0.19480038 407:-0.11558491 408:-0.35230845 409:-0.32780456 410:-0.26848464 411:-0.13102536 412:-0.14999067 413:-0.11969638 414:-0.18656491 415:-0.20471531 416:-0.052799603 417:-0.13848295 418:-0.14115071 419:-0.1802718 420:-0.19578918 421:-0.19303704 422:-0.19982333 423:-0.22202759 424:-0.21388221 425:-0.24208571 426:-0.28976735 427:-0.31696374 428:-0.33974473 429:-0.3046716 430:-0.26510095 431:-0.27632507 432:-0.28463388 433:-0.28959724 434:-0.2498659 435:-0.21071358 436:-0.20227117 437:-0.17200283 438:-0.18112179 439:-0.16768607 440:-0.16081254 441:-0.14420536 442:-0.16957316 443:-0.15543459 444:-0.17641233 445:-0.15356772 446:-0.11274369 447:-0.10055336 448:-0.12573633 449:-0.14794563 450:-0.13458997 
3.633195264379121 1:-0.98833075 2:-1.0791737 3:-1.1708265 4:-1.2447843 5:-1.3183776 6:-1.4271099 7:-1.4995721 8:-1.497028 9:-1.5493211 10:-1.6258919 11:-1.7050902 12:-1.7663481 13:-1.8044577 14:-1.8393113 15:-1.8717039 16:-1.883264 17:-1.889664 18:-1.9067375 19:-1.9333553 20:-1.9738083 21:-1.9927817 22:-2.0208917 23:-2.0260233 24:-2.0229815 25:-2.0000037 26:-1.9522142 27:-1.9036721 28:-1.8632408 29:-1.8188732 30:-1.778213 31:-1.746931 32:-1.7143786 33:-1.6729961 34:-1.6094282 35:-1.5409508 36:-1.4808936 37:-1.419341 38:-1.3489732 39:-1.2586705 40:-1.1703395 41:-1.0920677 42:-0.99200942 43:-0.89420572 44:-0.83319723 45:-0.78245016 46:-0.68683728 47:-0.54699349 48:-0.43301672 49:-0.38035408 50:-0.32460776 51:-0.21967949 52:-0.13636297 53:-0.10735136 54:-0.093358781 55:-0.097720024 56:-0.059987338 57:0.0036888762 58:0.042969201 59:0.055035073 60:0.055258737 61:0.092275108 62:0.15555434 63:0.23827147 64:0.28077187 65:0.29042993 66:0.30462956 67:0.34953621 68:0.3649546 69:0.37732723 70:0.37930571 71:0.37906391 72:0.38261887 73:0.40806938 74:0.43511738 75:0.43936254 76:0.47111292 77:0.52000619 78:0.56079908 79:0.59266821 80:0.63292034 81:0.67395248 82:0.69093023 83:0.70881133 84:0.73821332 85:0.76618295 86:0.80253123 87:0.83350113 88:0.84884918 89:0.85696981 90:0.84702071 91:0.83519639 92:0.82416371 93:0.84759338 94:0.86862769 95:0.85799376 96:0.84971053 97:0.83538004 98:0.82746741 99:0.84597193 100:0.83885141 101:0.81683667 102:0.82091291 103:0.85320819 104:0.87070034 105:0.88583661 106:0.87596596 107:0.82562405 108:0.81490049 109:0.7956045 110:0.80392898 111:0.79989519 112:0.79815124 113:0.79156622 114:0.79733606 115:0.80361992 116:0.80724821 117:0.79688527 118:0.79318216 119:0.78759583 120:0.7879552 121:0.75713359 122:0.76920763 123:0.75670616 124:0.75225047 125:0.76176752 126:0.74879423 127:0.73392469 128:0.73551987 129:0.73388708 130:0.73738352 131:0.7585188 132:0.77189322 133:0.77137875 134:0.77512995 135:0.7916421 136:0.8119539 137:0.81347801 138:0.80189867 139:0.8054 140:0.8242224 141:0.84031276 142:0.83038173 143:0.82434731 144:0.83987142 145:0.8468102 146:0.86419278 147:0.85976971 148:0.84429704 149:0.84297518 150:0.84528918 151:0.52117146 152:-0.029360404 153:-0.51352928 154:-0.40641929 155:-0.16204431 156:-0.24432909 157:-0.37878335 158:-0.39911372 159:-0.35557987 160:-0.20146667 161:-0.52194237 162:-0.891084 163:-1.2611961 164:-1.7448124 165:-2.1198813 166:-2.5493413 167:-2.8170103 168:-2.6815667 169:-2.4384115 170:-2.594417 171:-2.6142253 172:-2.3529551 173:-1.8840916 174:-1.7439688 175:-1.5374125 176:-1.1135427 177:-0.67171966 178:-0.95107843 179:-0.99958893 180:-0.4401965 181:0.26795645 182:-0.0028639734 183:-0.74847188 184:-0.37918963 185:0.63268195 186:0.73941471 187:-0.10419945 188:-0.21327791 189:0.70602501 190:1.1422827 191:0.88007256 192:0.21647858 193:0.4409385 194:1.1202747 195:1.6794955 196:1.1500072 197:-0.16533375 198:0.65424492 199:1.8949413 200:2.2296145 201:0.92163402 202:0.27550558 203:1.3879862 204:2.197099 205:1.9994508 206:1.0448521 207:0.60138044 208:1.3180957 209:1.8368169 210:1.8951757 211:1.5323015 212:0.93325135 213:1.1381156 214:1.439013 215:1.3671612 216:0.82256243 217:0.21406564 218:0.40650619 219:0.62430187 220:0.48337606 221:0.27654111 222:0.0077697662 223:-0.076705557 224:-0.062796964 225:0.0049895151 226:-0.13309642 227:-0.33226263 228:-0.27222353 229:-0.1761124 230:-0.25562497 231:-0.55207278 232:-0.76289826 233:-0.63259675 234:-0.46751102 235:-0.46234655 236:-0.53438455 237:-0.56090654 238:-0.4496027 239:-0.33298356 240:-0.26181846 241:-0.22910887 242:-0.20236168 243:-0.26028756 244:-0.39703868 245:-0.44913151 246:-0.59498306 247:-0.8021457 248:-0.94877464 249:-0.86003153 250:-0.88762686 251:-1.0463047 252:-0.96788778 253:-0.95229427 254:-0.90340997 255:-0.63712022 256:-0.44682156 257:-0.49481353 258:-0.498719 259:-0.43095553 260:-0.44845395 261:-0.68542157 262:-0.56015769 263:-0.36664696 264:-0.38183561 265:-0.69836156 266:-0.79426378 267:-0.74065451 268:-0.63578981 269:-0.54765493 270:-0.55976365 271:-0.51572811 272:-0.54134815 273:-0.53445927 274:-0.60247772 275:-0.59219318 276:-0.63612405 277:-0.6629562 278:-0.68341694 279:-0.68623375 280:-0.71659098 281:-0.81160176 282:-0.86189597 283:-0.83283207 284:-0.82588369 285:-0.89672006 286:-0.95847357 287:-0.91826768 288:-0.84923734 289:-0.80734223 290:-0.78689993 291:-0.77936765 292:-0.69026131 293:-0.73888486 294:-0.82277399 295:-0.92711111 296:-1.1373689 297:-1.1973081 298:-1.0430335 299:-0.94919362 300:-0.97270803 301:1.0793895 302:1.0125098 303:0.75679903 304:0.92875796 305:0.94100364 306:0.74254662 307:0.65561976 308:0.60725872 309:0.58507051 310:0.57437585 311:0.33599798 312:-0.11963582 313:-0.82667317 314:-1.3929638 315:-1.5939488 316:-1.6316715 317:-1.6164102 318:-1.1370087 319:-0.7917021 320:-0.62143751 321:-0.63374202 322:-0.69284426 323:-0.67687507 324:-0.49516833 325:-0.029779554 326:0.19272141 327:0.25241124 328:0.30634351 329:0.76110303 330:1.3529571 331:1.3296085 332:1.1449528 333:1.2787236 334:1.5481606 335:1.4670247 336:1.2170769 337:1.3654955 338:1.5191548 339:1.5391149 340:1.2547146 341:1.1835136 342:1.3320405 343:1.5657512 344:1.4417971 345:0.97188406 346:1.0349188 347:1.3885788 348:1.5031715 349:1.4795861 350:1.2195658 351:1.4761461 352:1.5399094 353:1.6152516 354:1.4955651 355:1.4353674 356:1.4433264 357:1.3317685 358:1.3135098 359:1.2357228 360:1.0032897 361:1.1175375 362:1.0429518 363:1.0827285 364:1.0510623 365:1.0434467 366:1.1195642 367:0.99626047 368:0.95521195 369:0.77982265 370:0.65527027 371:0.57723885 372:0.47990808 373:0.4065027 374:0.30635369 375:0.16362862 376:0.15696613 377:0.11519829 378:-0.024876783 379:-0.16018855 380:0.022561368 381:0.21066708 382:0.084020344 383:-0.081672959 384:-0.11208646 385:-0.047779585 386:-0.067934949 387:-0.19897367 388:-0.34066732 389:-0.30839709 390:-0.12867503 391:-0.12457512 392:-0.40969876 393:-0.51996473 394:-0.42325647 395:-0.24639738 396:-0.24389913 397:-0.25010833 398:-0.33524905 399:-0.40562727 400:-0.26641436 401:-0.094847508 402:-0.16508537 403:-0.3250031 404:-0.33978148 405:-0.40804201 406:-0.24296786 407:-0.11074171 408:-0.14412619 409:-0.22362453 410:-0.32261781 411:-0.23576892 412:-0.31779435 413:-0.23717465 414:-0.28095418 415:-0.28923932 416:-0.25645522 417:-0.34955854 418:-0.30114045 419:-0.26432258 420:-0.30194451 421:-0.30715957 422:-0.34277317 423:-0.36799912 424:-0.29614459 425:-0.26489915 426:-0.32138465 427:-0.36282382 428:-0.3670433 429:-0.3507534 430:-0.31896788 431:-0.34589071 432:-0.37605427 433:-0.35015645 434:-0.29242926 435:-0.25625434 436:-0.2620331 437:-0.27242365 438:-0.29685197 439:-0.28247258 440:-0.24963768 441:-0.23617433 442:-0.25762541 443:-0.27026713 444:-0.27704245 445:-0.30868828 446:-0.29419706 447:-0.26929072 448:-0.24015639 449:-0.26950352 450:-0.25223279 
0.892586441375181 1:-0.0094287755 2:0.03655025 3:0.089121745 4:0.13637022 5:0.1952522 6:0.22156044 7:0.27604622 8:0.35589346 9:0.42989746 10:0.46734964 11:0.50320593 12:0.51639239 13:0.54576872 14:0.58963279 15:0.59607903 16:0.59636999 17:0.62025276 18:0.6647246 19:0.69548188 20:0.69912485 21:0.70876484 22:0.67181146 23:0.65979314 24:0.70244768 25:0.71340208 26:0.69378108 27:0.65866783 28:0.64246771 29:0.637963 30:0.62533945 31:0.65119001 32:0.69852445 33:0.72238907 34:0.71578631 35:0.69609423 36:0.69473011 37:0.72578312 38:0.76595515 39:0.78878327 40:0.78484801 41:0.77923047 42:0.78287248 43:0.79236675 44:0.80659218 45:0.80965067 46:0.80577821 47:0.81565954 48:0.80996357 49:0.80115203 50:0.80126011 51:0.79677507 52:0.771861 53:0.75955422 54:0.7553805 55:0.7622665 56:0.75729318 57:0.75634466 58:0.76116871 59:0.76887234 60:0.775233 61:0.76102292 62:0.75998353 63:0.77780012 64:0.77465538 65:0.76845179 66:0.7703491 67:0.75842308 68:0.74500994 69:0.77203017 70:0.76388978 71:0.76185432 72:0.76481254 73:0.75021891 74:0.72917044 75:0.7227743 76:0.71361776 77:0.72071922 78:0.6996164 79:0.70535101 80:0.71760777 81:0.74427124 82:0.74997855 83:0.74272263 84:0.74502679 85:0.75073118 86:0.75582835 87:0.75047699 88:0.74647206 89:0.75798078 90:0.76916587 91:0.79036966 92:0.7984498 93:0.78603632 94:0.78161399 95:0.78853061 96:0.79076583 97:0.80352042 98:0.80750222 99:0.80636757 100:0.8009723 101:0.79045641 102:0.78794706 103:0.78444272 104:0.77671207 105:0.77005068 106:0.76528256 107:0.77428863 108:0.77623733 109:0.7699259 110:0.76388961 111:0.74867038 112:0.74868489 113:0.76292442 114:0.73589531 115:0.74205521 116:0.74399663 117:0.74468037 118:0.74227754 119:0.74732703 120:0.74889236 121:0.74899843 122:0.73019076 123:0.72396195 124:0.71412795 125:0.71150285 126:0.72329167 127:0.73910019 128:0.73899814 129:0.74263826 130:0.77257759 131:0.72284317 132:0.67073422 133:0.65484909 134:0.67613219 135:0.70277196 136:0.69589878 137:0.68651569 138:0.68941221 139:0.69455453 140:0.7063118 141:0.71376481 142:0.69318512 143:0.6576686 144:0.59416285 145:0.51863511 146:0.45536663 147:0.37978115 148:0.29703918 149:0.22629188 150:0.13967918 151:1.3458049 152:1.4408346 153:1.6576397 154:1.5430662 155:1.3854617 156:1.2875544 157:1.2626112 158:0.95055442 159:0.8462077 160:0.70269044 161:0.63100496 162:0.42880936 163:0.52969666 164:0.46218194 165:0.46622608 166:0.44387606 167:0.27608323 168:-0.032852734 169:0.0068548619 170:-0.059535043 171:-0.030707877 172:-0.26641168 173:-0.41658696 174:-0.38199952 175:-0.36254032 176:-0.31545655 177:-0.36982874 178:-0.46858011 179:-0.65031639 180:-0.56263855 181:-0.23020023 182:-0.099666276 183:-0.27057434 184:-0.44000552 185:-0.44972458 186:-0.39145484 187:-0.43078622 188:-0.54318375 189:-0.60750989 190:-0.60947558 191:-0.58634276 192:-0.60701176 193:-0.71708181 194:-0.76901398 195:-0.81714453 196:-0.8268647 197:-0.80579326 198:-1.0497814 199:-1.0676074 200:-1.1384421 201:-0.97370374 202:-0.70522033 203:-0.73481621 204:-0.79055127 205:-0.7375875 206:-0.5859893 207:-0.37234209 208:-0.28775528 209:-0.28669012 210:-0.18087452 211:-0.16614599 212:-0.17509191 213:-0.036546317 214:0.0073015457 215:-0.058875936 216:-0.087001795 217:0.034274555 218:0.030991959 219:-0.20334404 220:-0.29144733 221:-0.379157 222:-0.33409995 223:-0.37989982 224:-0.4781889 225:-0.4814882 226:-0.52577805 227:-0.61466118 228:-0.63395155 229:-0.61628346 230:-0.71243397 231:-0.79374545 232:-0.82983421 233:-0.80831807 234:-0.81944582 235:-0.85495674 236:-0.78128921 237:-0.61336543 238:-0.58437439 239:-0.69067975 240:-0.72149576 241:-0.62427944 242:-0.45546127 243:-0.40066098 244:-0.47832219 245:-0.56401827 246:-0.64557024 247:-0.57346381 248:-0.49077376 249:-0.54986845 250:-0.56492184 251:-0.55788354 252:-0.40464903 253:-0.54032004 254:-0.53418075 255:-0.43638875 256:-0.36384041 257:-0.29207969 258:-0.31281658 259:-0.30163961 260:-0.20603015 261:-0.30847055 262:-0.30225175 263:-0.23035564 264:-0.13324151 265:-0.2660425 266:-0.29038924 267:-0.36167262 268:-0.19159117 269:-0.23842351 270:-0.36751606 271:-0.53079432 272:-0.55688353 273:-0.53445927 274:-0.49866345 275:-0.55971001 276:-0.59921986 277:-0.60498469 278:-0.60463286 279:-0.42706865 280:-0.33021117 281:-0.10846559 282:0.080121567 283:0.1504453 284:0.29184962 285:0.68647051 286:0.93975339 287:0.89333734 288:0.77418986 289:0.73340876 290:0.88185546 291:1.1797474 292:1.2499326 293:1.1021699 294:1.0852578 295:1.1611392 296:1.564782 297:1.8439771 298:1.5690153 299:1.4471313 300:1.5231923 301:0.91624618 302:0.90558879 303:0.98628491 304:0.88197951 305:0.86193659 306:0.83983248 307:0.80387682 308:0.82834171 309:0.94914519 310:0.91691063 311:0.70869198 312:0.69100971 313:0.6024562 314:0.41677659 315:0.38544906 316:0.12421139 317:0.30585708 318:0.1421841 319:0.0081481628 320:-0.19390413 321:-0.2896411 322:-0.42525514 323:-0.3832747 324:-0.44076956 325:-0.3971069 326:-0.37554558 327:-0.28729617 328:-0.48045448 329:-0.59378431 330:-0.49490694 331:-0.47275984 332:-0.68437117 333:-0.77668373 334:-0.83199755 335:-0.79058606 336:-0.94156221 337:-1.003266 338:-0.83225951 339:-0.55981263 340:-0.3821781 341:-0.37645698 342:-0.40994833 343:-0.45086865 344:-0.47881574 345:-0.51368173 346:-0.51311099 347:-0.48413173 348:-0.51176741 349:-0.53719562 350:-0.46460684 351:-0.38107232 352:-0.34754282 353:-0.26487659 354:-0.3730852 355:-0.34705898 356:-0.31507966 357:-0.26986765 358:-0.27151228 359:-0.30374561 360:-0.37749389 361:-0.44445323 362:-0.21628483 363:-0.3077966 364:-0.29459556 365:-0.26684688 366:-0.26188435 367:-0.18259364 368:-0.42939692 369:-0.35162299 370:-0.37817158 371:-0.30235257 372:-0.30841355 373:-0.33356924 374:-0.37645605 375:-0.35270138 376:-0.46575869 377:-0.49806937 378:-0.50929749 379:-0.49108361 380:-0.46395153 381:-0.48372529 382:-0.51151419 383:-0.51374926 384:-0.45633038 385:-0.38511993 386:-0.32800494 387:-0.32072921 388:-0.36913992 389:-0.34053466 390:-0.32744434 391:-0.33549497 392:-0.27819052 393:-0.25713111 394:-0.3230484 395:-0.34827771 396:-0.28319504 397:-0.2150338 398:-0.26665139 399:-0.29898181 400:-0.27850719 401:-0.22922992 402:-0.19686277 403:-0.20144384 404:-0.16876444 405:-0.16665197 406:-0.13459104 407:-0.11316331 408:-0.14176048 409:-0.14921023 410:-0.17568493 411:-0.15097652 412:-0.089581349 413:-0.059889268 414:-0.094477815 415:-0.10087152 416:-0.11314201 417:-0.14339169 418:-0.15099623 419:-0.17532764 420:-0.20813282 421:-0.23917168 422:-0.27715685 423:-0.26308208 424:-0.31024672 425:-0.303682 426:-0.15878139 427:0.12787908 428:0.30632148 429:0.031725548 430:-0.22997035 431:-0.21155705 432:0.13818544 433:0.25767857 434:0.15560614 435:0.31983624 436:0.48958817 437:0.45730095 438:0.44171703 439:0.57022723 440:0.72743883 441:0.86745325 442:0.94575537 443:0.93043799 444:0.95467016 445:1.0576476 446:1.1207072 447:1.1222717 448:1.1553597 449:1.201553 450:1.2963745 
0.196761248829152 1:0.73277842 2:0.71003567 3:0.69899029 4:0.69611872 5:0.70307174 6:0.69726374 7:0.69680115 8:0.70209721 9:0.71264297 10:0.7213682 11:0.70803339 12:0.70715065 13:0.72302485 14:0.71681086 15:0.70946791 16:0.71023074 17:0.69794443 18:0.68385513 19:0.70999693 20:0.70075072 21:0.69904122 22:0.702447 23:0.68728193 24:0.66654382 25:0.66081032 26:0.65056759 27:0.65698871 28:0.63571377 29:0.64305313 30:0.65763613 31:0.68549789 32:0.69160573 33:0.68585815 34:0.68960146 35:0.69609423 36:0.70180531 37:0.69744126 38:0.69480533 39:0.71044591 40:0.72624566 41:0.75087747 42:0.76170092 43:0.75187493 44:0.75041096 45:0.75913543 46:0.76426862 47:0.77952858 48:0.78609289 49:0.7876491 50:0.784431 51:0.77658061 52:0.77522479 53:0.77291692 54:0.76693921 55:0.7622665 56:0.75892123 57:0.76934951 58:0.7725687 59:0.76725367 60:0.76234756 61:0.74819322 62:0.74881993 63:0.76351848 64:0.73702616 65:0.74337524 66:0.74525983 67:0.74589015 68:0.74343947 69:0.74825289 70:0.74952772 71:0.74914759 72:0.73006766 73:0.72329048 74:0.71318929 75:0.70989195 76:0.72012796 77:0.73388073 78:0.73266814 79:0.73517881 80:0.76244229 81:0.71413463 82:0.66393672 83:0.64777099 84:0.66667188 85:0.69064099 86:0.68317941 87:0.67437153 88:0.67706384 89:0.6815682 90:0.69304114 91:0.70071618 92:0.68188008 93:0.64924285 94:0.59052508 95:0.52084333 96:0.46235964 97:0.39269892 98:0.31669138 99:0.25190656 100:0.17184957 101:0.089730912 102:6.3395853e-05 103:-0.075125645 104:-0.14372477 105:-0.20287279 106:-0.29984467 107:-0.41765557 108:-0.53992114 109:-0.63437253 110:-0.74159076 111:-0.81528727 112:-0.93795812 113:-1.0621945 114:-1.1325335 115:-1.1917084 116:-1.2674034 117:-1.3814828 118:-1.4577567 119:-1.4819539 120:-1.5883679 121:-1.6638917 122:-1.7587605 123:-1.848096 124:-1.9096962 125:-1.9542002 126:-1.9935804 127:-2.0418646 128:-2.0818771 129:-2.1207465 130:-2.174926 131:-2.2079099 132:-2.2231358 133:-2.2237977 134:-2.2113027 135:-2.187359 136:-2.1530673 137:-2.0954527 138:-2.0158872 139:-1.9319195 140:-1.8671337 141:-1.8023062 142:-1.7318575 143:-1.6573135 144:-1.5931977 145:-1.4834163 146:-1.3478487 147:-1.2474528 148:-1.1460599 149:-1.0429284 150:-0.94642432 151:-0.91430154 152:-0.651366 153:-0.68982078 154:-0.76008702 155:-0.72558696 156:-0.57320802 157:-0.36276974 158:-0.28110995 159:-0.29042272 160:-0.18652192 161:-0.17138406 162:-0.16108711 163:-0.0031309313 164:0.022353898 165:-0.046191488 166:-0.058921601 167:0.065190491 168:0.061184449 169:-0.18562966 170:-0.28675135 171:-0.37718544 172:-0.32846501 173:-0.37619693 174:-0.48010748 175:-0.4924801 176:-0.53646504 177:-0.62675719 178:-0.64348575 179:-0.63313906 180:-0.73019082 181:-0.80894108 182:-0.8517457 183:-0.83280674 184:-0.83868742 185:-0.87699031 186:-0.80065106 187:-0.63119174 188:-0.60635721 189:-0.71259269 190:-0.74370993 191:-0.64441862 192:-0.47857749 193:-0.42757673 194:-0.4991156 195:-0.58207129 196:-0.66871494 197:-0.59954358 198:-0.52163289 199:-0.57998297 200:-0.59429925 201:-0.57797388 202:-0.43600145 203:-0.56423388 204:-0.56275389 205:-0.46748504 206:-0.3941256 207:-0.32405832 208:-0.34695716 209:-0.34447262 210:-0.25528492 211:-0.35227723 212:-0.34617846 213:-0.27596786 214:-0.18253864 215:-0.31669056 216:-0.34009793 217:-0.40347766 218:-0.23499728 219:-0.27469282 220:-0.3980744 221:-0.55250248 222:-0.5749627 223:-0.54834107 224:-0.50126622 225:-0.55175721 226:-0.58713455 227:-0.58898858 228:-0.58572115 229:-0.40477269 230:-0.29422855 231:-0.061404013 232:0.12214382 233:0.18275017 234:0.32434228 235:0.70834566 236:0.93956142 237:0.89295399 238:0.78462219 239:0.74672901 240:0.87385486 241:1.1320342 242:1.21653 243:1.0991182 244:1.0882327 245:1.1428708 246:1.4588564 247:1.701921 248:1.5329511 249:1.4371138 250:1.5179924 251:1.7252013 252:1.5720002 253:1.5195511 254:1.5675856 255:1.7143056 256:1.9780719 257:1.8535201 258:1.7940775 259:1.4175014 260:1.3658145 261:1.832932 262:1.8368504 263:1.4354272 264:1.1498248 265:1.1043273 266:0.92530808 267:0.33312751 268:-0.35023354 269:-0.7418235 270:-0.93001828 271:-1.0807111 272:-1.7298045 273:-2.0365411 274:-1.8770863 275:-2.0755913 276:-2.4075249 277:-2.4665142 278:-2.1257717 279:-1.7344126 280:-1.718559 281:-1.7642379 282:-1.673716 283:-1.1629836 284:-0.73563193 285:-0.57560122 286:-0.47174871 287:-0.46952148 288:-0.22484227 289:0.036402359 290:0.051287705 291:-0.12356218 292:0.084114346 293:0.74196354 294:0.93483203 295:0.36004315 296:-0.14307093 297:0.84792299 298:1.5109698 299:1.0114358 300:1.0467964 301:-0.60411103 302:-0.55242536 303:-0.4398059 304:-0.56815262 305:-0.53720638 306:-0.48526809 307:-0.44424074 308:-0.45734091 309:-0.49273473 310:-0.56864784 311:-0.68145665 312:-0.48644375 313:-0.69469552 314:-0.56597178 315:-0.5263208 316:-0.5316503 317:-0.40801396 318:-0.75485988 319:-0.71387883 320:-0.7272626 321:-0.57441427 322:-0.56648274 323:-0.58361377 324:-0.65111148 325:-0.63839054 326:-0.78655629 327:-0.84949139 328:-0.87198903 329:-0.82448134 330:-0.80225957 331:-0.85303974 332:-0.90223727 333:-0.83844889 334:-0.76409005 335:-0.68079344 336:-0.60470451 337:-0.56566347 338:-0.60572081 339:-0.5653072 340:-0.56661671 341:-0.57181241 342:-0.48712505 343:-0.45872561 344:-0.54033955 345:-0.58839103 346:-0.51021206 347:-0.41387131 348:-0.47236182 349:-0.51302646 350:-0.49845956 351:-0.42994649 352:-0.38611473 353:-0.39109499 354:-0.36226812 355:-0.36376923 356:-0.31784445 357:-0.29772219 358:-0.33393609 359:-0.35013261 360:-0.39273433 361:-0.35603867 362:-0.2518278 363:-0.20950086 364:-0.27306504 365:-0.28958516 366:-0.30952051 367:-0.33977419 368:-0.3536078 369:-0.38378294 370:-0.42541463 371:-0.45040261 372:-0.48267412 373:-0.44681869 374:-0.50585951 375:-0.4979192 376:-0.32678148 377:0.011161808 378:0.22139296 379:-0.10549515 380:-0.41113013 381:-0.39440511 382:0.029880841 383:0.17388436 384:0.056093767 385:0.25475581 386:0.46575034 387:0.4305284 388:0.40911107 389:0.55702183 390:0.73824653 391:0.89608302 392:0.97583453 393:0.95145424 394:0.98421144 395:1.1047298 396:1.1658416 397:1.1575492 398:1.192192 399:1.2543326 400:1.3612806 401:1.2513342 402:1.3329923 403:1.3224537 404:1.3375911 405:1.5496312 406:1.5922129 407:1.4293969 408:1.294224 409:1.167923 410:1.3219993 411:0.94134913 412:0.72258846 413:0.79663406 414:0.8586236 415:0.84096751 416:0.71153751 417:0.56346609 418:0.23297914 419:0.18065212 420:-0.07482147 421:-0.37029119 422:-0.47869269 423:-0.71924309 424:-0.72390901 425:-0.73257471 426:-0.58787332 427:-0.30549872 428:-0.041735317 429:0.010988737 430:0.053416535 431:0.018729211 432:0.10847381 433:0.28907964 434:0.43562826 435:0.51110742 436:0.58842521 437:0.64921628 438:0.71736529 439:0.68501374 440:0.66610718 441:0.81184411 442:0.87028201 443:0.80351782 444:0.75743513 445:0.71978228 446:0.7448395 447:0.91603714 448:1.0143779 449:0.94813573 450:1.1445083 
1.935772552097448 1:-0.87505539 2:-0.80572851 3:-0.73353061 4:-0.67344343 5:-0.61725906 6:-0.55227198 7:-0.48586135 8:-0.42103327 9:-0.3569429 10:-0.25772867 11:-0.19608783 12:-0.15285117 13:-0.10311535 14:-0.0054349602 15:0.081104545 16:0.11720601 17:0.15251717 18:0.19762083 19:0.22132352 20:0.27964994 21:0.34574959 22:0.40254114 23:0.42371295 24:0.42664077 25:0.45701728 26:0.51594094 27:0.52601721 28:0.52089694 29:0.55652091 30:0.59644243 31:0.63232067 32:0.67430893 33:0.68585815 34:0.68960146 35:0.71366725 36:0.7301061 37:0.74172541 38:0.76061891 39:0.77454011 40:0.77596887 41:0.77923047 42:0.78287248 43:0.79236675 44:0.82239315 45:0.83577924 46:0.8213443 47:0.81565954 48:0.81337367 49:0.80959136 50:0.80630885 51:0.82201815 52:0.83409116 53:0.83638978 54:0.81977901 55:0.81785498 56:0.82892733 57:0.8408762 58:0.82142581 59:0.80448327 60:0.79133981 61:0.799512 62:0.79666393 63:0.79208176 64:0.79817364 65:0.77942279 66:0.7703491 67:0.78348894 68:0.76856709 69:0.77361532 70:0.77506027 71:0.75073593 72:0.74112285 73:0.74705086 74:0.73875912 75:0.73565665 76:0.73640345 77:0.73717111 78:0.73101556 79:0.72523621 80:0.72092884 81:0.72585442 82:0.72129794 83:0.71559359 84:0.72799311 85:0.7455806 86:0.75582835 87:0.75739567 88:0.7603537 89:0.76492738 90:0.76916587 91:0.78347324 92:0.7984498 93:0.80484542 94:0.80379395 95:0.80716706 96:0.78234515 97:0.75656939 98:0.7792182 99:0.78821557 100:0.77791544 101:0.79210518 102:0.80937486 103:0.80245272 104:0.80263987 105:0.79256461 106:0.77651131 107:0.77108017 108:0.76334961 109:0.76029643 110:0.76388961 111:0.75027115 112:0.75825902 113:0.75337716 114:0.76267718 115:0.76573394 116:0.75664695 117:0.75733611 118:0.7550037 119:0.74732703 120:0.76191331 121:0.7376092 122:0.73019076 123:0.72396195 124:0.70086794 125:0.70982737 126:0.72499184 127:0.74082535 128:0.7268242 129:0.72863637 130:0.728585 131:0.73532964 132:0.74299065 133:0.74224633 134:0.75679703 135:0.75646434 136:0.78013234 137:0.80040836 138:0.80939777 139:0.79600632 140:0.78866206 141:0.78634378 142:0.80627962 143:0.80212348 144:0.79553303 145:0.81380935 146:0.84776673 147:0.88522365 148:0.84971544 149:0.80532882 150:0.83457105 151:1.2949016 152:1.6764428 153:1.8803237 154:1.4395537 155:1.1349983 156:1.3308279 157:1.7350125 158:1.7765808 159:1.5774158 160:1.1809223 161:1.2931706 162:1.8445609 163:1.8247637 164:1.2004647 165:0.93060451 166:1.2059288 167:1.5648722 168:1.3071771 169:0.72688956 170:0.73572204 171:0.53420119 172:0.43168835 173:0.51238384 174:0.50097207 175:0.28174443 176:0.13269954 177:0.29176202 178:0.30944845 179:0.071131797 180:-0.12442491 181:-0.20822273 182:-0.17412959 183:-0.11596043 184:-0.28458715 185:-0.47820896 186:-0.55513333 187:-0.48274321 188:-0.36068265 189:-0.34480291 190:-0.36785375 191:-0.35403934 192:-0.25948373 193:-0.3117747 194:-0.36051914 195:-0.29025622 196:-0.20415004 197:-0.13276801 198:-0.35222676 199:-0.53398066 200:-0.60368102 201:-0.68211332 202:-0.72445025 203:-0.79167699 204:-0.7730284 205:-0.70157384 206:-0.70808438 207:-0.69423383 208:-0.64296655 209:-0.64060795 210:-0.60501381 211:-0.66249596 212:-0.65115882 213:-0.63510017 214:-0.61758907 215:-0.63895884 216:-0.64855884 217:-0.46601369 218:-0.47751689 219:-0.44592991 220:-0.45494217 221:-0.567576 222:-0.45841621 223:-0.44053867 224:-0.44934223 225:-0.47067759 226:-0.52577805 227:-0.62107933 228:-0.59174995 229:-0.5705514 230:-0.73816969 231:-0.7644518 232:-0.82239688 233:-0.73100069 234:-0.63671045 235:-0.74074286 236:-0.68402374 237:-0.56090654 238:-0.5560014 239:-0.61781571 240:-0.64037623 241:-0.56573565 242:-0.51681875 243:-0.54842248 244:-0.60394216 245:-0.66249264 246:-0.73662717 247:-0.65350247 248:-0.54402967 249:-0.57894624 250:-0.62359548 251:-0.54652491 252:-0.38339474 253:-0.48882327 254:-0.55311558 255:-0.47462332 256:-0.29007939 257:-0.24139623 258:-0.29732471 259:-0.24839188 260:-0.19821003 261:-0.23628844 262:-0.19605519 263:-0.21521216 264:-0.077107353 265:-0.20894375 266:-0.29038924 267:-0.23534532 268:-0.18365905 269:-0.18089208 270:-0.36751606 271:-0.36506596 272:-0.370459 273:-0.37280024 274:-0.40061663 275:-0.51098526 276:-0.58691847 277:-0.55345446 278:-0.63493443 279:-0.68047453 280:-0.76898147 281:-0.81916236 282:-0.80062654 283:-0.78976883 284:-0.78422903 285:-0.91165582 286:-0.92602525 287:-0.89333734 288:-0.84923734 289:-1.0054388 290:-1.0231165 291:-0.79597032 292:-0.63069395 293:-0.57879314 294:-0.56942537 295:-0.53106365 296:-0.36532577 297:0.064360419 298:0.15270439 299:0.33714527 300:0.82931127 301:1.8326259 302:1.7285568 303:1.6190103 304:1.6037043 305:1.5976039 306:1.8428833 307:1.67618 308:1.494992 309:1.5655489 310:1.743462 311:2.1212023 312:1.8868036 313:1.3641558 314:1.3698571 315:1.5855564 316:1.5563145 317:1.2590145 318:1.0874995 319:1.1711737 320:1.097162 321:1.2331044 322:0.85694272 323:0.34554506 324:0.6798452 325:0.64725515 326:0.44290185 327:0.27115108 328:0.082609487 329:-0.32280684 330:-0.32248961 331:-0.15189866 332:-0.16224379 333:-0.46099512 334:-0.55357677 335:-0.52296654 336:-0.53252072 337:-0.54980831 338:-0.57417744 339:-0.47739401 340:-0.44269702 341:-0.48275332 342:-0.51468816 343:-0.56610407 344:-0.58046378 345:-0.5280489 346:-0.4870206 347:-0.42468061 348:-0.45659959 349:-0.58284846 350:-0.70439692 351:-0.68789349 352:-0.59440306 353:-0.58568169 354:-0.54615846 355:-0.58100244 356:-0.59155861 357:-0.55119851 358:-0.40450214 359:-0.52988222 360:-0.55733105 361:-0.60654661 362:-0.41938751 363:-0.27662965 364:-0.44800056 365:-0.45443772 366:-0.51792869 367:-0.47949023 368:-0.49352617 369:-0.50365186 370:-0.49923191 371:-0.49684969 372:-0.44671559 373:-0.45998723 374:-0.47282033 375:-0.49254076 376:-0.52990202 377:-0.59389244 378:-0.56612897 379:-0.56765436 380:-0.53623345 381:-0.39728641 382:-0.51151419 383:-0.54272999 384:-0.46158601 385:-0.47079367 386:-0.43907649 387:-0.367359 388:-0.35015819 389:-0.34283021 390:-0.32504953 391:-0.35973864 392:-0.35568645 393:-0.31329214 394:-0.35493278 395:-0.29976327 396:-0.22916316 397:-0.25946153 398:-0.2849441 399:-0.30361857 400:-0.26641436 401:-0.24809061 402:-0.23998925 403:-0.20373197 404:-0.16173635 405:-0.17630757 406:-0.18035014 407:-0.17854655 408:-0.16541755 409:-0.1839369 410:-0.1782627 411:-0.17342156 412:-0.12537947 413:-0.089792826 414:-0.1267083 415:-0.21196022 416:-0.13074188 417:-0.16057226 418:-0.13130519 419:-0.17779972 420:-0.19085172 421:-0.23917168 422:-0.26309621 423:-0.27676691 424:-0.24678716 425:-0.27858722 426:-0.37558573 427:-0.37199584 428:-0.32154568 429:-0.33692886 430:-0.31662584 431:-0.32430137 432:-0.33034407 433:-0.31651244 434:-0.2879489 435:-0.27902472 436:-0.27812285 437:-0.34160243 438:-0.34103986 439:-0.28452234 440:-0.18619115 441:-0.15276061 442:-0.083617386 443:0.086318115 444:0.1979317 445:0.1460487 446:-0.21211101 447:-0.64842898 448:-0.35661967 449:0.38361263 450:0.4343735 
0.9310392789856321 1:0.75813858 2:0.77248921 3:0.77606159 4:0.76070508 5:0.75876808 6:0.76894506 7:0.78127705 8:0.76223589 9:0.74818812 10:0.73744532 11:0.74643854 12:0.74371265 13:0.73726865 14:0.74036235 15:0.72049183 16:0.71023074 17:0.72331314 18:0.70776829 19:0.71160971 20:0.71213182 21:0.68769699 22:0.67826105 23:0.68404796 24:0.67633578 25:0.67395826 26:0.67383639 27:0.67377993 28:0.66779495 29:0.66341365 30:0.66103578 31:0.66662856 32:0.66220118 33:0.65802506 34:0.6721449 35:0.69082233 36:0.70180531 37:0.70452673 38:0.7090353 39:0.71756749 40:0.72624566 41:0.74378922 42:0.76170092 43:0.77124059 44:0.77323458 45:0.77829638 46:0.75562079 47:0.73135398 48:0.75710707 49:0.76908258 50:0.76087023 51:0.77826348 52:0.79708944 53:0.79129064 54:0.79335911 55:0.78515587 56:0.77031757 57:0.7660983 58:0.75954014 59:0.75754159 60:0.76234756 61:0.74979693 62:0.75838873 63:0.75399738 64:0.76368019 65:0.76688451 66:0.75780447 67:0.75842308 68:0.75600328 69:0.74825289 70:0.76229399 71:0.73802919 72:0.73006766 73:0.72329048 74:0.70040438 75:0.70828165 76:0.72175551 77:0.73552592 78:0.72110003 79:0.72192201 80:0.72092884 81:0.72585442 82:0.73142051 83:0.72915811 84:0.74162005 85:0.74043001 86:0.76101756 87:0.77988137 88:0.78811699 89:0.77534728 90:0.76916587 91:0.76795629 92:0.78644997 93:0.78261648 94:0.77649554 95:0.79361328 96:0.82444851 97:0.85885556 98:0.82580364 99:0.78491521 100:0.81250072 101:0.83332433 102:0.78959535 103:0.7369618 104:0.71189258 105:0.71376585 106:0.72517988 107:0.71653629 108:0.69891101 109:0.68647045 110:0.65818567 111:0.62380989 112:0.56677637 113:0.48605373 114:0.40978674 115:0.32057368 116:0.28067886 117:0.19573795 118:0.12505896 119:-0.016169473 120:-0.13653216 121:-0.19956187 122:-0.2192198 123:-0.25836443 124:-0.3184952 125:-0.44626005 126:-0.5824391 127:-0.69623649 128:-0.78448318 129:-0.85707671 130:-0.95897081 131:-1.0502357 132:-1.1573535 133:-1.262428 134:-1.3698217 135:-1.4763979 136:-1.5915103 137:-1.6865594 138:-1.7852899 139:-1.8943447 140:-1.9887875 141:-2.0591241 142:-2.1156372 143:-2.1388297 144:-2.1548173 145:-2.1892677 146:-2.2403308 147:-2.2710647 148:-2.2622493 149:-2.2207218 150:-2.164718 151:-0.62924308 152:-0.67021466 153:-0.74549178 154:-0.74283494 155:-0.68980647 156:-0.69437395 157:-0.68304185 158:-0.63512126 159:-0.64516724 160:-0.61244717 161:-0.66995588 162:-0.63300429 163:-0.59516158 164:-0.59811781 165:-0.62266126 166:-0.61671275 167:-0.43470341 168:-0.44818363 169:-0.42801758 170:-0.45006307 171:-0.56548846 172:-0.45257168 173:-0.43678198 174:-0.4512522 175:-0.48165178 176:-0.53646504 177:-0.6331804 178:-0.60126715 179:-0.58733282 180:-0.75596809 181:-0.77963775 182:-0.84429937 183:-0.75549978 184:-0.65623977 185:-0.76305278 186:-0.70393196 187:-0.57923475 188:-0.57828011 189:-0.64034827 190:-0.66316932 191:-0.58634276 192:-0.53901715 193:-0.57232927 194:-0.62312297 195:-0.67934298 196:-0.75767418 197:-0.67553031 198:-0.57145822 199:-0.60758435 200:-0.65058988 201:-0.56755993 202:-0.41677153 203:-0.5168499 204:-0.58027677 205:-0.5034987 206:-0.32435698 207:-0.27577456 208:-0.33215669 209:-0.29391293 210:-0.24784388 211:-0.28247801 212:-0.24203882 213:-0.26100401 214:-0.12716859 215:-0.26029361 216:-0.34009793 217:-0.2784056 218:-0.22717407 219:-0.2176138 220:-0.3980744 221:-0.38669376 222:-0.38848831 223:-0.38663747 224:-0.40318757 225:-0.50310943 226:-0.57486325 227:-0.53764339 228:-0.61586515 229:-0.65629901 230:-0.72530183 231:-0.74980497 232:-0.73314894 233:-0.73802954 234:-0.72469415 235:-0.8192649 236:-0.78128921 237:-0.7182832 238:-0.69077308 239:-0.82315982 240:-0.8161352 241:-0.6096435 242:-0.47847032 243:-0.4523775 244:-0.45615396 245:-0.39989432 246:-0.2105205 247:0.16975233 248:0.23350671 249:0.400006 250:0.8628034 251:1.1118353 252:0.96625284 253:0.64410586 254:0.45989794 255:0.67241367 256:1.0099586 257:1.1270572 258:1.1434191 259:1.0675877 260:1.3423541 261:1.5361833 262:1.6396282 263:1.7155816 264:1.9196647 265:1.8710819 266:1.7171109 267:1.9832778 268:2.1801123 269:2.1563221 270:1.3413515 271:1.3826149 272:1.4316448 273:1.8702188 274:1.8429252 275:1.4434188 276:1.4489624 277:1.5592849 278:1.3892104 279:1.2546249 280:1.045039 281:0.54174635 282:0.57027703 283:0.3514071 284:-0.31908536 285:-0.96393098 286:-1.3559655 287:-1.6163173 288:-1.8950991 289:-2.2453765 290:-2.5089945 291:-2.8879068 292:-3.2601673 293:-3.3163615 294:-3.182083 295:-2.9073484 296:-2.4475027 297:-2.1535201 298:-2.2271623 299:-1.9450689 300:-1.5423118 301:-0.9963493 302:-0.86346838 303:-0.839767 304:-0.78199698 305:-0.82597299 306:-0.82073658 307:-0.79247243 308:-0.62400347 309:-0.77390132 310:-0.78831689 311:-0.88643835 312:-0.77989009 313:-0.64567525 314:-0.77735539 315:-0.78348666 316:-0.88863831 317:-0.8148008 318:-0.84335749 319:-0.93870161 320:-0.90081576 321:-0.83941154 322:-0.75230851 323:-0.74941163 324:-0.77804196 325:-0.82565546 326:-0.87233244 327:-0.98067027 328:-0.95029594 329:-0.92701335 330:-0.89971285 331:-0.73420227 332:-0.90223727 333:-0.87619427 334:-0.7708808 335:-0.79058606 336:-0.74563477 337:-0.62274206 338:-0.58278018 339:-0.56805449 340:-0.56373486 341:-0.60054115 342:-0.57808333 343:-0.52420028 344:-0.57778883 345:-0.53092234 346:-0.44643555 347:-0.46521547 348:-0.49337814 349:-0.51839739 350:-0.48435426 351:-0.45166834 352:-0.43497249 353:-0.39372454 354:-0.35415531 355:-0.37490939 356:-0.37037545 357:-0.37292945 358:-0.36107688 359:-0.39072123 360:-0.39578242 361:-0.38256304 362:-0.29244834 363:-0.24306526 364:-0.31074346 365:-0.4203303 366:-0.33036133 367:-0.36014945 368:-0.33028808 369:-0.38670657 370:-0.4047458 371:-0.45040261 372:-0.46607788 373:-0.46262094 374:-0.43152136 375:-0.46833779 376:-0.5833548 377:-0.58567904 378:-0.52553505 379:-0.54304234 380:-0.51399286 381:-0.52982603 382:-0.52504907 383:-0.5005762 384:-0.46421382 385:-0.44937524 386:-0.43907649 387:-0.49688617 388:-0.47353944 389:-0.40021873 390:-0.2963118 391:-0.26033962 392:-0.17721097 393:0.010195387 394:0.12788792 395:0.06409504 396:-0.34950688 397:-0.8300071 398:-0.49988342 399:0.33393584 400:0.38659849 401:0.12912318 402:0.13679999 403:0.27677627 404:0.48016322 405:0.54062084 406:0.65053879 407:0.7707213 408:0.86603096 409:0.78096862 410:0.94822272 411:1.0311293 412:1.2327116 413:1.270819 414:1.2937351 415:1.316717 416:1.4658176 417:1.4740364 418:1.5572019 419:1.4438858 420:1.3891346 421:1.5867888 422:1.5179182 423:1.4566449 424:1.5582847 425:1.4027634 426:1.2685139 427:1.2514511 428:1.2981696 429:1.1446011 430:0.99257471 431:0.76236194 432:0.67070923 433:0.43487033 434:0.041357114 435:-0.12646318 436:-0.19997263 437:-0.40631807 438:-0.5767086 439:-0.77236502 440:-0.86506898 441:-0.85856895 442:-0.83835098 443:-0.76183097 444:-0.5024539 445:-0.13656821 446:-0.034977962 447:-0.098470187 448:-0.12573633 449:-0.046990764 450:0.07930607 
0.008913678717348413 1:-2.0568386 2:-2.0058492 3:-1.9448904 4:-1.8691192 5:-1.7459289 6:-1.6454121 7:-1.587297 8:-1.5376623 9:-1.4749994 10:-1.3799119 11:-1.2970354 12:-1.2131492 13:-1.1413298 14:-1.077813 15:-1.0086886 16:-0.95972688 17:-0.85906013 18:-0.72702145 19:-0.66248185 20:-0.58531383 21:-0.54072069 22:-0.42784337 23:-0.33788822 24:-0.29306838 25:-0.17408376 26:-0.052482656 27:-0.0029061724 28:0.039679346 29:0.13234339 30:0.23777936 31:0.25493396 32:0.29204975 33:0.40752726 34:0.52550975 35:0.55375279 36:0.54968853 37:0.58938794 38:0.64855795 39:0.70332433 40:0.75465892 41:0.7969511 42:0.82874418 43:0.85750578 44:0.84697243 45:0.81139257 46:0.78502341 47:0.77436702 48:0.77245251 49:0.78089764 50:0.78779682 51:0.77153199 52:0.74326876 53:0.74285083 54:0.75868299 55:0.77698109 56:0.8012505 57:0.792108 58:0.75954014 59:0.75430424 60:0.74785143 61:0.73536353 62:0.72649273 63:0.70163137 64:0.70096483 65:0.7057604 66:0.71076209 67:0.7317906 68:0.71674136 69:0.71179438 70:0.73676144 71:0.72532246 72:0.69216416 73:0.68527386 74:0.69880626 75:0.69700959 76:0.69734227 77:0.68617025 78:0.71448968 79:0.72192201 80:0.69768132 81:0.69906632 82:0.70442699 83:0.70202907 84:0.70414596 85:0.71811079 86:0.72815256 87:0.72972096 88:0.74300165 89:0.74061429 90:0.74148415 91:0.74899113 92:0.75902181 93:0.77919665 94:0.77308323 95:0.7665057 96:0.77224035 97:0.77836808 98:0.78753703 99:0.79316612 100:0.78450311 101:0.77726629 102:0.77476072 103:0.77134453 104:0.76374817 105:0.75718558 106:0.75565792 107:0.75664208 108:0.75046189 109:0.7442473 110:0.73986599 111:0.73586418 112:0.73432369 113:0.73587384 114:0.72644289 115:0.72942655 116:0.72976503 117:0.72095088 118:0.72955138 119:0.73283026 120:0.72447808 121:0.7376092 122:0.71718513 123:0.71086426 124:0.71247045 125:0.71150285 126:0.71309065 127:0.71494789 128:0.7216068 129:0.72863637 130:0.71626707 131:0.72105939 132:0.74118424 133:0.74224633 134:0.73296424 135:0.7583158 136:0.76328563 137:0.77240197 138:0.76815273 139:0.79037011 140:0.79240525 141:0.78634378 142:0.79144756 143:0.79471554 144:0.79553303 145:0.80830921 146:0.82038998 147:0.81249811 148:0.80817441 149:0.8071215 150:0.78276677 151:-1.4436958 152:-1.3958879 153:-1.0516823 154:-0.55306201 155:-0.081538221 156:-0.019306658 157:0.33382207 158:0.59654311 159:0.48422349 160:0.18709672 161:1.0049338 162:1.490623 163:1.2475338 164:1.1926107 165:1.7392635 166:1.952269 167:1.4789529 168:0.87617337 169:1.4683114 170:2.2055275 171:0.8279539 172:1.0522217 173:1.4413546 174:1.4762806 175:0.96934243 176:0.76502937 177:1.3130526 178:1.3649135 179:0.97007915 180:0.9775535 181:1.5133482 182:1.5757582 183:1.0225602 184:0.75604019 185:1.0385844 186:1.461088 187:1.068544 188:0.45355303 189:0.30539687 190:0.60534529 191:0.82199671 192:0.61689132 193:0.24552258 194:0.1063321 195:0.27716196 196:0.67555796 197:0.94190134 198:0.5446292 199:0.15605399 200:0.099951968 201:0.27596951 202:0.32358038 203:0.22234022 204:0.059308194 205:-0.17037232 206:-0.21098298 207:-0.17115975 208:-0.11754988 209:0.009445217 210:0.064679811 211:-0.13512412 212:-0.26435446 213:-0.31337747 214:-0.18253864 215:-0.2522369 216:-0.27682389 217:-0.20805256 218:-0.086356236 219:-0.053511589 220:-0.22747109 221:-0.27364236 222:-0.45064644 223:-0.38663747 224:-0.35703292 225:-0.29770773 226:-0.23740247 227:-0.31300818 228:-0.30236753 229:-0.29615905 230:-0.2620589 231:-0.26645962 232:-0.30922123 233:-0.2530387 234:-0.27800767 235:-0.3195792 236:-0.24258814 237:-0.18620022 238:-0.25808505 239:-0.27999153 240:-0.22801866 241:-0.12665724 242:-0.056637671 243:-0.14207836 244:-0.25663989 245:-0.26038896 246:-0.2105205 247:-0.093231847 248:-0.11798234 249:-0.16216459 250:-0.23243788 251:-0.21712461 252:-0.085834643 253:-0.15924388 254:-0.25015826 255:-0.18786407 256:-0.068796335 257:-0.021767897 258:-0.06494668 259:-0.065828238 260:0.0051131571 261:0.012338822 262:-0.0064184735 263:-0.0032034286 264:0.011103459 265:-0.0050196698 266:-0.03445296 267:0.017309269 268:0.070168741 269:-0.0011063736 270:-0.082704806 271:-0.11647343 272:-0.059751452 273:-0.15725486 274:-0.21605792 275:-0.26194762 276:-0.34089057 277:-0.38598122 278:-0.41070281 279:-0.40979098 280:-0.5397731 281:-0.62258666 282:-0.56320748 283:-0.51703496 284:-0.59678307 285:-0.68761942 286:-0.66643866 287:-0.63572378 288:-0.50582005 289:-0.5505504 290:-0.53544364 291:-0.48882092 292:-0.6136747 293:-0.59480231 294:-0.52983965 295:-0.52206257 296:-0.55248773 297:-0.5067106 298:-0.55545106 299:-0.55499299 300:-0.45488639 301:-0.51733265 302:-0.36450354 303:0.25520847 304:0.56789559 305:0.63848624 306:0.46746245 307:1.0383298 308:1.0732336 309:1.0789144 310:1.1775349 311:1.5099841 312:1.5236637 313:1.4282592 314:1.6183255 315:1.5349025 316:1.5895226 317:1.8532423 318:1.6908923 319:1.3484378 320:1.3511422 321:1.5178776 322:1.8678349 323:1.5406713 324:0.44774376 325:1.4215236 326:1.4686416 327:1.3955415 328:0.74635377 329:0.98447635 330:0.88068351 331:0.65223489 332:0.5476992 333:0.65420921 334:0.5940601 335:0.24901284 336:0.34743408 337:0.10976652 338:-0.00066174888 339:0.10503091 340:0.090445861 341:-0.11215258 342:-0.26110751 343:-0.26753957 344:-0.15782195 345:-0.11427429 346:-0.27829749 347:-0.39225272 348:-0.47498886 349:-0.45126084 350:-0.28970114 351:-0.15570809 352:-0.17525494 353:-0.34376309 354:-0.4623261 355:-0.38326451 356:-0.32890361 357:-0.28100946 358:-0.28236859 359:-0.32693911 360:-0.36530154 361:-0.40024595 362:-0.30006469 363:-0.25984746 364:-0.27844767 365:-0.40327658 366:-0.48517884 367:-0.43873972 368:-0.33903297 369:-0.43640832 370:-0.49332653 371:-0.45040261 372:-0.46607788 373:-0.46262094 374:-0.45079421 375:-0.53556826 376:-0.52990202 377:-0.47342915 378:-0.5498914 379:-0.55124635 380:-0.55013382 381:-0.5557577 382:-0.54670487 383:-0.52165309 384:-0.48523635 385:-0.45472985 386:-0.43636743 387:-0.38808335 388:-0.37151264 389:-0.33594358 390:-0.3178651 391:-0.28943202 392:-0.30637086 393:-0.34474232 394:-0.32988077 395:-0.33857482 396:-0.3421389 397:-0.28752115 398:-0.3055234 399:-0.35462292 400:-0.34622704 401:-0.29052717 402:-0.26495722 403:-0.25407093 404:-0.22498922 405:-0.18596317 406:-0.17312502 407:-0.16401694 408:-0.22456024 409:-0.20874167 410:-0.20146263 411:-0.14848262 412:-0.10971779 413:-0.13251219 414:-0.16124096 415:-0.17815062 416:-0.15085601 417:-0.19247903 418:-0.24206731 419:-0.20004845 420:-0.23035138 421:-0.25616866 422:-0.22794461 423:-0.29273255 424:-0.24443681 425:-0.2466484 426:-0.31009275 427:-0.37887485 428:-0.33519497 429:-0.35996976 430:-0.33302012 431:-0.3602836 432:-0.36691223 433:-0.32324124 434:-0.30363014 435:-0.28357879 436:-0.28961553 437:-0.26572893 438:-0.26739338 439:-0.24352715 440:-0.18619115 441:-0.23617433 442:-0.25552893 443:-0.24407725 444:-0.24484081 445:-0.22369071 446:-0.20779069 447:-0.19012999 448:-0.18090315 449:-0.1953326 450:-0.17950814 
1.875810673228077 1:0.69896488 2:0.69990807 3:0.69899029 4:0.69446266 5:0.68996672 6:0.68911814 7:0.69192754 8:0.68746888 9:0.68517626 10:0.68439081 11:0.68242996 12:0.68171622 13:0.6818761 14:0.66970787 15:0.67167162 16:0.67069575 17:0.66147691 18:0.66950723 19:0.67129013 20:0.6617298 21:0.67473216 22:0.65407509 23:0.64685724 24:0.64859189 25:0.64766239 26:0.64724347 27:0.64691398 28:0.6525986 29:0.66002023 30:0.649137 31:0.6529054 32:0.67084957 33:0.6719416 34:0.66341662 35:0.68730772 36:0.69119251 37:0.700984 38:0.69836282 39:0.72290867 40:0.72979732 41:0.72784065 42:0.73523648 43:0.74131185 44:0.74514397 45:0.75913543 46:0.77291645 47:0.76748493 48:0.76563231 49:0.76739471 50:0.74740694 51:0.74292317 52:0.75504204 53:0.75955422 54:0.75868299 55:0.75736163 56:0.74426879 57:0.74821663 58:0.76442585 59:0.76725367 60:0.76395824 61:0.76102292 62:0.75679393 63:0.75241054 64:0.752705 65:0.75277895 66:0.74525983 67:0.73962368 68:0.69946612 69:0.66899527 70:0.65058907 71:0.66814215 72:0.71269522 73:0.6440892 74:0.58214391 75:0.52953901 76:0.51505675 77:0.44926308 78:0.37570933 79:0.2662195 80:0.17129085 81:0.07959156 82:-0.012588323 83:-0.11184207 84:-0.17308835 85:-0.25363343 86:-0.35639226 87:-0.49488506 88:-0.59310659 89:-0.68170179 90:-0.79658142 91:-0.89063301 92:-0.96381 93:-1.0521259 94:-1.1326874 95:-1.2123471 96:-1.2992448 97:-1.3495196 98:-1.4302625 99:-1.5269892 100:-1.6150566 101:-1.6695023 102:-1.7092156 103:-1.7484187 104:-1.780417 105:-1.814227 106:-1.8285589 107:-1.8309838 108:-1.83997 109:-1.836452 110:-1.8306617 111:-1.822175 112:-1.8092042 113:-1.8068812 114:-1.7595442 115:-1.6747546 116:-1.593149 117:-1.5191139 118:-1.4577567 119:-1.383698 120:-1.2709823 121:-1.1920521 122:-1.1198593 123:-1.0393139 124:-0.98149561 125:-0.94723127 126:-0.87656856 127:-0.74971658 128:-0.69926562 129:-0.67330201 130:-0.62638682 131:-0.50439853 132:-0.40949943 133:-0.2937752 134:-0.28084623 135:-0.27479957 136:-0.17638651 137:-0.067789834 138:-0.034250685 139:-0.060697649 140:0.023179005 141:0.15174302 142:0.22968309 143:0.26504764 144:0.355844 145:0.44896665 146:0.51194525 147:0.5379592 148:0.57518344 149:0.63860921 150:0.69166269 151:-0.22201669 152:-0.10475502 153:-0.17950329 154:-0.27702866 155:-0.22466016 156:-0.10585375 157:-0.058511249 158:-0.10410429 159:-0.12390998 160:-0.059491583 161:-0.046741108 162:-0.043107819 163:-0.017931698 164:-0.024770535 165:-0.046191488 166:-0.058921601 167:0.0027037531 168:0.053348017 169:-0.021661364 170:-0.10923861 171:-0.13615757 172:-0.072495003 173:-0.16751508 174:-0.22040995 175:-0.26508548 176:-0.34001305 177:-0.38267516 178:-0.40223659 179:-0.40410789 180:-0.51752832 181:-0.57451441 182:-0.52410714 183:-0.4954673 184:-0.56163728 185:-0.62775197 186:-0.56257326 187:-0.50501049 188:-0.40279829 189:-0.43675036 190:-0.40812405 191:-0.36129883 192:-0.48613245 193:-0.49271537 194:-0.4407592 195:-0.41184583 196:-0.40183723 197:-0.36072817 198:-0.45187743 199:-0.46957742 200:-0.38790024 201:-0.26555557 202:-0.18601249 203:-0.26097639 204:-0.27362644 205:-0.16136891 206:-0.045282516 207:-0.02630846 208:-0.13235035 209:-0.15667948 210:-0.054376833 211:-0.080835842 212:-0.093267915 213:0.15798369 214:0.33161187 215:0.54537709 216:0.66437735 217:1.0114 218:1.3139989 219:1.3449246 220:1.3790435 221:1.5577903 222:1.8025858 223:1.6548706 224:1.2641495 225:1.259021 226:1.2412893 227:1.3236198 228:1.1083718 229:1.1158182 230:1.0568967 231:0.93458035 232:1.0369352 233:1.1316453 234:1.2583231 235:1.2437232 236:1.3286233 237:1.3725781 238:1.210217 239:0.97856913 240:0.78597538 241:0.91249502 242:1.0861453 243:0.78143099 244:0.60792108 245:0.5602308 246:0.62922669 247:0.39843421 248:0.2441579 249:0.13830589 250:-0.24221682 251:-0.80777343 252:-0.97851493 253:-0.91109685 254:-1.0927583 255:-1.8510677 256:-2.5951112 257:-2.7586748 258:-2.7063103 259:-2.5380443 260:-2.1845212 261:-1.7521127 262:-1.5007558 263:-1.6084124 264:-1.6007486 265:-0.93491349 266:-0.56232153 267:-0.6538045 268:-1.0799885 269:-0.8425035 270:0.72188698 271:1.9099324 272:0.79469431 273:0.59715396 274:1.7102737 275:2.179704 276:1.4243596 277:0.59953438 278:1.8740355 279:2.3258407 280:1.6737248 281:0.64759481 282:1.2595582 283:1.9160383 284:2.36764 285:1.7543774 286:0.42869228 287:0.95150814 288:1.765417 289:1.3863937 290:0.63801905 291:0.26660057 292:1.0457017 293:1.5744405 294:1.1090092 295:0.44105286 296:0.69915793 297:1.4322747 298:1.1859148 299:0.57574039 300:0.46683612 301:-0.75684098 302:-0.69822678 303:-0.67257015 304:-0.63497898 305:-0.58533415 306:-0.54229773 307:-0.55112373 308:-0.65461496 309:-0.63692273 310:-0.6244959 311:-0.56592151 312:-0.57080957 313:-0.66829999 314:-0.64384995 315:-0.6821789 316:-0.66033203 317:-0.70313382 318:-0.79910868 319:-0.80467265 320:-0.8330877 321:-0.80381489 322:-0.72257639 323:-0.77704461 324:-0.7200166 325:-0.74282675 326:-0.84016638 327:-0.98067027 328:-0.91673584 329:-0.93067521 330:-0.89596464 331:-0.97583846 332:-0.98111983 333:-0.83158609 334:-0.7980438 335:-0.76999994 336:-0.76282139 337:-0.67347859 338:-0.63152901 339:-0.58179092 340:-0.52915262 341:-0.5947954 342:-0.59462119 343:-0.57658002 344:-0.59918842 345:-0.59988477 346:-0.58268536 347:-0.53007124 348:-0.51439445 349:-0.53451016 350:-0.53231228 351:-0.48968158 352:-0.46583002 353:-0.44894509 354:-0.44880475 355:-0.38326451 356:-0.35931629 357:-0.39242763 358:-0.43435701 359:-0.43130985 360:-0.27081084 361:-0.12026648 362:0.052826227 363:0.24841343 364:0.30018522 365:0.47498963 366:0.47052156 367:0.22782223 368:0.098211933 369:0.61025198 370:1.0273093 371:0.89656247 372:0.6237422 373:0.935878 374:1.1571126 375:1.139815 376:1.3115461 377:1.2240081 378:1.217297 379:1.2426971 380:1.251354 381:1.1874265 382:1.1911732 383:1.1855752 384:1.1282427 385:1.2614222 386:1.1484341 387:1.1325657 388:1.0188992 389:0.92430838 390:0.80051161 391:0.87183936 392:0.81849431 393:0.66615621 394:0.64031556 395:0.56136806 396:0.48061919 397:0.43501402 398:0.38045314 399:0.32929908 400:0.26083305 401:0.12440801 402:-0.12195889 403:-0.48288438 404:-0.71695604 405:-0.83530237 406:-0.94621298 407:-0.78152537 408:-0.54629648 409:-0.38733601 410:-0.24786248 411:-0.16843378 412:-0.10971779 413:-0.087656857 414:-0.10829088 415:0.0078022168 416:0.17599868 417:0.50701564 418:0.77202149 419:0.78631212 420:0.96698204 421:0.88991291 422:1.0773515 423:1.5091034 424:1.5042265 425:0.76854975 426:1.0833268 427:1.2308141 428:1.4278378 429:1.1123438 430:0.79818536 431:1.0502198 432:1.4454971 433:1.4778345 434:1.1816072 435:0.96196092 436:1.149268 437:1.2093413 438:1.1550358 439:0.85309399 440:0.92200817 441:0.92947883 442:0.87866794 443:0.64033474 444:0.65076721 445:0.77928058 446:0.65195265 447:0.45148861 448:0.41162932 449:0.494869 450:0.44292934 
0.07535834324286601 1:-1.8099998 2:-1.8438075 3:-1.8795473 4:-1.9055525 5:-1.9293992 6:-1.9353956 7:-1.9284497 8:-1.9261256 9:-1.912851 10:-1.8959876 11:-1.8747129 12:-1.8521893 13:-1.8471891 14:-1.8079093 15:-1.7268181 16:-1.6523798 17:-1.5836539 18:-1.5225327 19:-1.4479074 20:-1.331589 21:-1.2473039 22:-1.1679336 23:-1.0817025 24:-1.0193055 25:-0.97939499 26:-0.90678011 27:-0.77866046 28:-0.72689185 29:-0.69904456 30:-0.64782945 31:-0.52557038 32:-0.43095632 33:-0.3178726 34:-0.30193144 35:-0.29326662 36:-0.19674495 37:-0.096130666 38:-0.062940223 39:-0.083610068 40:-6.8301106e-05 41:0.12356729 42:0.20065476 43:0.23780482 44:0.32729613 45:0.41772213 46:0.48061979 47:0.50768619 48:0.54568107 49:0.60873532 50:0.66157845 51:0.68233979 52:0.70794894 53:0.75287286 54:0.77354419 55:0.78188596 56:0.78822611 57:0.79535922 58:0.79374011 59:0.77534706 60:0.7591262 61:0.74819322 62:0.74403553 63:0.74288944 64:0.75897654 65:0.7778555 66:0.7703491 67:0.77095601 68:0.76385566 69:0.74983804 70:0.76229399 71:0.75073593 72:0.73322629 73:0.74863489 74:0.75154404 75:0.75820077 76:0.71036266 77:0.7240096 78:0.75580436 79:0.76169241 80:0.78735035 81:0.77943062 82:0.74829146 83:0.75459158 84:0.74673015 85:0.7593155 86:0.79388255 87:0.79890774 88:0.7898522 89:0.80313367 90:0.78992716 91:0.75933576 92:0.74016494 93:0.73302885 94:0.72531101 95:0.7444808 96:0.73182113 97:0.72638658 98:0.72764147 99:0.72715885 100:0.71697947 101:0.71131565 102:0.71542221 103:0.73204998 104:0.73133842 105:0.71215771 106:0.69951416 107:0.69728551 108:0.7037439 109:0.70091467 110:0.68861559 111:0.68463936 112:0.67847458 113:0.67063419 114:0.66027594 115:0.65681175 116:0.66809474 117:0.67190991 118:0.6818283 119:0.69578296 120:0.69843618 121:0.7034415 122:0.7009281 123:0.66829679 124:0.6428554 125:0.61432449 126:0.57537686 127:0.54588179 128:0.48334545 129:0.4065931 130:0.33441138 131:0.26619509 132:0.19745459 133:0.10679551 134:0.034479992 135:-0.056327148 136:-0.14269309 137:-0.23956238 138:-0.3548371 139:-0.45898984 140:-0.55140118 141:-0.66337467 142:-0.78631338 143:-0.87577552 144:-0.93181674 145:-0.97190315 146:-1.0339286 147:-1.0765478 148:-1.0774269 149:-1.0644406 150:-1.035742 151:-0.75141099 152:-0.89639851 153:-0.85683378 154:-1.0447464 155:-1.7811113 156:-2.477244 157:-2.6527153 158:-2.6190597 159:-2.4768073 160:-2.151756 161:-1.7605817 162:-1.4957279 163:-1.5868129 164:-1.6034391 165:-0.95893529 166:-0.57743169 167:-0.66121784 168:-1.0829346 169:-0.85576096 170:0.69311898 171:1.8899829 172:0.78073836 173:0.58643224 174:1.7071228 175:2.1766996 176:1.4219157 177:0.60007615 178:1.8715368 179:2.3156373 180:1.6606512 181:0.65622563 182:1.2481196 183:1.8869925 184:2.3237385 185:1.7008463 186:0.44181746 187:0.91267299 188:1.6398102 189:1.2971157 190:0.62548045 191:0.29931402 192:0.98708423 193:1.4686815 194:1.0692128 195:0.45549339 196:0.65578924 197:1.2241377 198:1.0428825 199:0.53327293 200:0.44707757 201:1.119499 202:1.3908409 203:1.1415895 204:0.76022322 205:0.76598289 206:1.0186889 207:1.0117924 208:0.6446743 209:0.35614024 210:0.34743934 211:0.33020397 212:0.2860979 213:0.1953933 214:0.054761592 215:-0.12332959 216:-0.37173494 217:-0.41911166 218:-0.41493118 219:-0.43879503 220:-0.50470147 221:-0.47713488 222:-0.27971158 223:-0.39337512 224:-0.48395823 225:-0.38419266 226:-0.42760764 227:-0.37077152 228:-0.19987792 229:-0.20469493 230:-0.30066248 231:-0.43489815 232:-0.71083696 233:-0.49201969 234:-0.44720709 235:-0.29102574 236:-0.23510618 237:-0.043811816 238:0.039831307 239:-0.041527406 240:-0.086059494 241:-0.097385341 242:-0.064307355 243:-0.060809539 244:-0.10146228 245:-0.10447121 246:-0.048641519 247:0.032543192 248:0.020483045 249:-0.0070830512 250:0.051151378 251:0.28265517 252:0.47740411 253:0.48961552 254:0.46936536 255:0.61506182 256:0.77945538 257:0.78916747 258:0.65542521 259:0.67963998 260:0.84186627 261:0.78228132 262:0.72178652 263:0.76154234 264:0.87717324 265:0.79436274 266:0.86132401 267:1.1542549 268:1.5058822 269:1.6529222 270:1.7329669 271:2.0831939 272:2.4026059 273:2.2676306 274:2.229345 275:2.3854308 276:2.7529102 277:2.7638039 278:2.6497557 279:2.7232272 280:3.1210119 281:3.2030789 282:3.0670064 283:3.2438216 284:3.0132872 285:2.8222842 286:2.8704287 287:3.1204481 288:3.0142072 289:2.6336683 290:2.2229557 291:2.1011956 292:1.8881543 293:1.4623763 294:0.96650061 295:0.5940712 296:0.34822924 297:0.18388691 298:-0.18395968 299:-0.65873 300:-0.68272791 301:-0.14592118 302:-0.4941048 303:-1.0004071 304:-1.3366558 305:-1.5100748 306:-1.6191516 307:-1.4303226 308:-1.1171886 309:-0.89646111 310:-0.69151358 311:-0.59573703 312:-0.57080957 313:-0.5891134 314:-0.55855481 315:-0.38215206 316:-0.12069899 317:0.43347648 318:0.85821023 319:0.92040982 320:1.2199191 321:1.0630315 322:1.3475228 323:1.9517118 324:1.9781626 325:0.85972881 326:1.3649954 327:1.6504033 328:1.973162 329:1.4092518 330:0.91441734 331:1.353376 332:1.9976357 333:1.9238265 334:1.4530901 335:1.1067677 336:1.3889431 337:1.4225741 338:1.306954 339:0.8880078 340:0.98093856 341:0.9709209 342:0.89654331 343:0.57315519 344:0.59116357 345:0.75637645 346:0.57108964 347:0.30224454 348:0.24744687 349:0.3651195 350:0.28861611 351:-0.0063703511 352:-0.10325404 353:0.082224005 354:0.17858581 355:-0.043489489 356:-0.27360782 357:-0.24201311 358:-0.19008991 359:-0.17908056 360:-0.20375292 361:-0.3354086 362:-0.2670605 363:-0.25265508 364:-0.31074346 365:-0.25547774 366:-0.20531642 367:-0.33977419 368:-0.44980168 369:-0.4714919 370:-0.45789423 371:-0.54910264 372:-0.73991592 373:-0.79183443 374:-0.72887399 375:-0.61893404 376:-0.55395577 377:-0.79375199 378:-0.77451106 379:-0.77001994 380:-0.83926149 381:-0.83236213 382:-0.56565369 383:-0.73242202 384:-0.75590141 385:-0.65820498 386:-0.6476743 387:-0.57719302 388:-0.48065759 389:-0.4713805 390:-0.49987073 391:-0.56823412 392:-0.63983819 393:-0.68395494 394:-0.73299051 395:-0.7436704 396:-0.80386583 397:-0.79727088 398:-0.78570697 399:-0.81134371 400:-0.83235882 401:-0.7809051 402:-0.73707867 403:-0.72771477 404:-0.72866954 405:-0.69288225 406:-0.68370025 407:-0.72825013 408:-0.7402845 409:-0.75940755 410:-0.79177192 411:-0.80687068 412:-0.70709889 413:-0.6259209 414:-0.69764827 415:-0.67563482 416:-0.65119511 417:-0.65880882 418:-0.59650612 419:-0.53872364 420:-0.65497271 421:-0.68837738 422:-0.50212709 423:-0.498005 424:-0.67690193 425:-0.81242175 426:-0.84532848 427:-0.80537364 428:-0.86069248 429:-0.95212091 430:-0.96771305 431:-0.88322533 432:-0.92914765 433:-1.1598555 434:-1.2153822 435:-1.3424014 436:-1.2940758 437:-1.3056423 438:-1.4015492 439:-1.5881692 440:-1.6475761 441:-1.6691791 442:-1.6287248 443:-1.6724328 444:-1.802595 445:-1.9640159 446:-1.935918 447:-1.8254241 448:-1.839994 449:-1.9239271 450:-2.1067115 
0.3305030908073683 1:0.61781239 2:0.6458942 3:0.69228844 4:0.71433539 5:0.72272927 6:0.72821704 7:0.73579003 8:0.7346046 9:0.71910572 10:0.70529107 11:0.69523168 12:0.69125413 13:0.68820668 14:0.70110986 15:0.71891698 16:0.71023074 17:0.71062878 18:0.70298566 19:0.68741796 20:0.69912485 21:0.68769699 22:0.67019906 23:0.68566494 24:0.68939173 25:0.69696716 26:0.64724347 27:0.66034695 28:0.69312219 29:0.70074127 30:0.72902878 31:0.72152117 32:0.68987605 33:0.69803512 34:0.69134712 35:0.70488074 36:0.7407189 37:0.74703951 38:0.73927397 39:0.75673617 40:0.74755561 41:0.71898034 42:0.70171485 43:0.69729899 44:0.69247407 45:0.71384591 46:0.70373381 47:0.7003846 48:0.70425057 49:0.70663154 50:0.6986025 51:0.69580276 52:0.70122136 53:0.7194661 54:0.72070439 55:0.7034081 56:0.69217123 57:0.6913204 58:0.69928304 59:0.69765048 60:0.68664557 61:0.68404475 62:0.67864873 63:0.67148124 64:0.66176772 65:0.65874186 66:0.66999203 67:0.67382579 68:0.68376136 69:0.69752801 70:0.7000584 71:0.70467401 72:0.70164003 73:0.66943361 74:0.64447037 75:0.61649489 76:0.57853117 77:0.54961959 78:0.48973784 79:0.4170156 80:0.34896839 81:0.28552506 82:0.22191786 83:0.13740597 84:0.070493213 85:-0.013272668 86:-0.091742566 87:-0.18354455 88:-0.28944562 89:-0.38473469 90:-0.4695911 91:-0.57512174 92:-0.6860998 93:-0.76656956 94:-0.81875558 95:-0.85656019 96:-0.91189395 97:-0.95043586 98:-0.94943422 99:-0.93622416 100:-0.91182255 101:-0.85995824 102:-0.81254465 103:-0.78733943 104:-0.77247387 105:-0.75446411 106:-0.73776595 107:-0.70320883 108:-0.66879835 109:-0.63918726 110:-0.61346477 111:-0.59918258 112:-0.57094971 113:-0.61665542 114:-0.76703983 115:-0.86652036 116:-0.96379585 117:-1.0445239 118:-1.1157413 119:-1.1791325 120:-1.2221538 121:-1.2538793 122:-1.2710496 123:-1.2783467 124:-1.2848183 125:-1.2722761 126:-1.2982108 127:-1.3017691 128:-1.3253538 129:-1.357644 130:-1.3408265 131:-1.3623975 132:-1.3813484 133:-1.38442 134:-1.3551553 135:-1.328281 136:-1.3107318 137:-1.3262104 138:-1.3353441 139:-1.3100576 140:-1.3056547 141:-1.3128634 142:-1.3313918 143:-1.329512 144:-1.3068456 145:-1.2835778 146:-1.2565929 147:-1.2365439 148:-1.2128868 149:-1.175587 150:-1.1607869 151:1.132011 152:1.4031373 153:1.1473222 154:0.76672244 155:0.7682483 156:1.0192584 157:1.0144003 158:0.64816976 159:0.35390918 160:0.34401655 161:0.32718775 162:0.29608265 163:0.22628095 164:0.069478331 165:-0.11024368 166:-0.34174528 167:-0.38783836 168:-0.38549217 169:-0.42088852 170:-0.49976664 171:-0.47510301 172:-0.27416834 173:-0.38966027 174:-0.48587853 175:-0.39502526 176:-0.43823904 177:-0.38267516 178:-0.20923726 179:-0.22088295 180:-0.31775446 181:-0.44997524 182:-0.73260441 183:-0.51655101 184:-0.4670348 185:-0.31442376 186:-0.25753608 187:-0.067087317 188:0.011338826 189:-0.068960583 190:-0.11280848 191:-0.12173593 192:-0.093274665 193:-0.094645891 194:-0.12709352 195:-0.12813674 196:-0.085537727 197:-0.024215549 198:-0.043309711 199:-0.064757097 200:-0.0032475369 201:0.19265796 202:0.36204022 203:0.38344576 204:0.36595852 205:0.52289067 206:0.68728796 207:0.70599526 208:0.57807218 209:0.58727026 210:0.74181447 211:0.70246645 212:0.65802517 213:0.70416408 214:0.81412234 215:0.73068135 216:0.79883467 217:1.0973871 218:1.4391703 219:1.6017802 220:1.6989247 221:2.0627532 222:2.3853182 223:2.2545214 224:2.227628 225:2.3887303 226:2.7567949 227:2.7677033 228:2.6517447 229:2.7221568 230:3.0964523 231:3.1462515 232:3.0227019 233:3.2121857 234:2.9773892 235:2.7499186 236:2.7202677 237:2.9013799 238:2.8203839 239:2.4623459 240:2.0636079 241:1.9443293 242:1.7917563 243:1.4315816 244:0.97739157 245:0.62588038 246:0.4066431 247:0.27265918 248:-0.075377605 249:-0.53048326 250:-0.56492184 251:-0.035386505 252:0.10545399 253:-0.26223744 254:-0.56258299 255:-0.76138256 256:-0.76952601 257:-0.51170802 258:-0.4754812 259:-0.75044191 260:-0.87074057 261:-0.99019047 262:-0.47671753 263:0.14823138 264:-0.21343315 265:-0.28235642 266:0.16549726 267:0.41208207 268:0.48263891 269:0.21463648 270:-0.1610279 271:-0.297268 272:-0.23840829 273:-0.19766962 274:-0.18145316 275:-0.28901693 276:-0.19327384 277:-0.22494926 278:-0.17435057 279:-0.31764338 280:-0.33675998 281:-0.25967767 282:-0.3717405 283:-0.34478199 284:-0.2288336 285:-0.26941813 286:-0.15537755 287:0.0041550574 288:-0.084353373 289:-0.15435729 290:-0.20778847 291:-0.11526084 292:0.016037366 293:0.03755998 294:0.048111876 295:0.081009709 296:-0.0026994515 297:0.077641141 298:0.10626797 299:0.015560551 300:0.00079664867 301:-0.12509437 302:-0.24462237 303:-0.0070611039 304:0.11347631 305:-0.16249733 306:-0.43494781 307:-0.40976235 308:-0.3553026 309:-0.33773264 310:-0.3564252 311:-0.54355987 312:-0.55980533 313:-0.60796735 314:-0.58822268 315:-0.51073499 316:-0.45278086 317:-0.6233717 318:-0.78301821 319:-0.89114295 320:-0.8415537 321:-0.91060483 322:-1.1462592 323:-1.184631 324:-1.1153144 325:-0.99491414 326:-0.90449849 327:-1.2542719 328:-1.2374213 329:-1.1979908 330:-1.308267 331:-1.3323509 332:-0.97736352 333:-1.1232549 334:-1.1511628 335:-1.0307574 336:-1.0103087 337:-0.87959572 338:-0.740497 339:-0.72190258 340:-0.77411016 341:-0.84760831 342:-0.91159701 343:-0.9563331 344:-1.0218302 345:-1.0567609 346:-1.1247857 347:-1.08675 348:-1.0686997 349:-1.1065135 350:-1.1444822 351:-1.0653107 352:-0.99812241 353:-0.99589149 354:-1.0085886 355:-0.9709082 356:-0.94821645 357:-1.0052275 358:-1.0205981 359:-1.0633327 360:-1.1212272 361:-1.1311397 362:-0.95253206 363:-0.84482697 364:-0.97818976 365:-0.96604911 366:-0.94665411 367:-0.95103188 368:-0.88121666 369:-0.81355686 370:-0.9598517 371:-0.98744688 372:-0.74821404 373:-0.71809061 374:-0.93536887 375:-1.097615 376:-1.1392637 377:-1.1031236 378:-1.1669189 379:-1.2731992 380:-1.2868534 381:-1.201168 382:-1.2342766 383:-1.4911902 384:-1.5521297 385:-1.6996764 386:-1.6364821 387:-1.616001 388:-1.6693885 389:-1.8601827 390:-1.9511262 391:-1.9792152 392:-1.9079534 393:-1.9509478 394:-2.1359035 395:-2.3446469 396:-2.3093903 397:-2.1511475 398:-2.1599466 399:-2.2626494 400:-2.486658 401:-2.6198224 402:-2.5869777 403:-2.5147478 404:-2.4505534 405:-2.4308905 406:-2.3647451 407:-2.4524305 408:-2.4980052 409:-2.4089247 410:-2.2971895 411:-2.4628164 412:-3.0272644 413:-3.2702498 414:-2.7788166 415:-2.7307759 416:-2.7631792 417:-2.7155686 418:-2.7329845 419:-2.9193383 420:-2.800298 421:-2.6648825 422:-2.6721526 423:-2.6465233 424:-2.6112432 425:-2.6511851 426:-2.6384811 427:-2.6971021 428:-2.7260949 429:-2.6294985 430:-2.6539821 431:-2.6847356 432:-2.7575555 433:-2.5661749 434:-2.5482875 435:-2.5446774 436:-2.521494 437:-2.4102712 438:-2.4031413 439:-2.381426 440:-2.4237386 441:-2.3749875 442:-2.312178 443:-2.2868877 444:-2.2815943 445:-2.3507548 446:-2.3441881 447:-2.2545587 448:-2.2445507 449:-2.2679977 450:-2.3099127 
0.3964615699015158 1:0.6313378 2:0.63914247 3:0.65877918 4:0.66134144 5:0.64409915 6:0.63209891 7:0.6318197 8:0.64033316 9:0.64155267 10:0.63294402 11:0.63122309 12:0.62607839 13:0.6169877 14:0.60376369 15:0.59922872 16:0.60902118 17:0.61232503 18:0.62168091 19:0.6341961 20:0.63571585 21:0.64069948 22:0.63795112 23:0.60481556 24:0.58004816 25:0.55233983 26:0.51261683 27:0.48236004 28:0.42127646 29:0.34782557 30:0.28027499 31:0.2154799 32:0.15021602 33:0.064832362 34:-0.0016785159 35:-0.085905017 36:-0.16490656 37:-0.25909633 38:-0.36710569 39:-0.46105372 40:-0.54524773 41:-0.65259615 42:-0.76617952 43:-0.84667184 44:-0.8964011 45:-0.93225395 46:-0.98432264 47:-1.0201369 48:-1.0144382 49:-0.99473726 50:-0.96579709 51:-0.90797406 52:-0.85789646 53:-0.83060784 54:-0.81164981 55:-0.78767119 56:-0.76656054 57:-0.72783402 58:-0.68825887 59:-0.65394616 60:-0.62283783 61:-0.60213209 62:-0.57007966 63:-0.61227957 64:-0.75873533 65:-0.85368798 66:-0.94826579 67:-1.0259529 68:-1.0908772 69:-1.1475893 70:-1.1829673 71:-1.2061013 72:-1.2140663 73:-1.2139729 74:-1.2141367 75:-1.1966962 76:-1.2150281 77:-1.2123775 78:-1.2289528 79:-1.2533412 80:-1.2318635 81:-1.2430708 82:-1.252603 83:-1.2512617 84:-1.2206594 85:-1.1927573 86:-1.1710982 87:-1.1902122 88:-1.1969581 89:-1.171437 90:-1.1668244 91:-1.1768345 92:-1.1900924 93:-1.1854996 94:-1.1651042 95:-1.1445781 96:-1.1173583 97:-1.0979962 98:-1.0742166 99:-1.0385354 100:-1.0271068 101:-1.0215373 102:-1.0268226 103:-1.0378422 104:-1.0382338 105:-1.0246313 106:-1.0200888 107:-1.0224509 108:-1.0103229 109:-1.0002926 110:-0.99944431 111:-0.97536482 112:-0.96348914 113:-0.9492185 114:-0.93245723 115:-0.95807815 116:-0.98435261 117:-1.0049747 118:-1.0266582 119:-1.0406078 120:-1.0479986 121:-1.0586353 122:-1.077591 123:-1.0949791 124:-1.1041507 125:-1.1248331 126:-1.1519961 127:-1.1913586 128:-1.2123101 129:-1.2176252 130:-1.2282055 131:-1.2339652 132:-1.2512868 133:-1.2970228 134:-1.3221561 135:-1.3393898 136:-1.3519126 137:-1.3990271 138:-1.3840882 139:-1.3795709 140:-1.3430866 141:-1.3314734 142:-1.2887496 143:-1.2591366 144:-1.2662021 145:-1.265244 146:-1.2638933 147:-1.2601797 148:-1.2508156 149:-1.2365383 150:-1.232241 151:0.22593233 152:0.39473432 153:0.40504221 154:0.37855054 155:0.52673003 156:0.69037946 157:0.71014179 158:0.58179263 159:0.58557907 160:0.74005231 161:0.70111662 162:0.66476795 163:0.729507 164:0.82346927 165:0.73844792 166:0.8209743 167:1.127465 168:1.4717422 169:1.6180216 170:1.7013914 171:2.0632217 172:2.3863684 173:2.255887 174:2.2265178 175:2.3824375 176:2.7479666 177:2.7582751 178:2.6435341 179:2.7107161 180:3.0848455 181:3.1323574 182:3.0054537 183:3.1871549 184:2.9521693 185:2.719163 186:2.6812368 187:2.8499263 188:2.7628939 189:2.4136204 190:2.0215177 191:1.9036595 192:1.735025 193:1.3673548 194:0.93791089 195:0.59329494 196:0.35925845 197:0.20374462 198:-0.13299531 199:-0.56158204 200:-0.59429925 201:-0.098932466 202:0.025516625 203:-0.30836037 204:-0.5890382 205:-0.77360117 206:-0.77785299 207:-0.53328796 208:-0.50236209 209:-0.77061859 210:-0.88777334 211:-1.011492 212:-0.517265 213:0.0981283 214:-0.26163872 215:-0.33280397 216:0.11072956 217:0.36258871 218:0.42997583 219:0.17480452 220:-0.19192873 221:-0.31886292 222:-0.25640228 223:-0.21145856 224:-0.18395294 225:-0.28149181 226:-0.18218162 227:-0.2103178 228:-0.15767632 229:-0.29615905 230:-0.30066248 231:-0.2078723 232:-0.31665856 233:-0.30224067 234:-0.18325599 235:-0.20536533 236:-0.070503078 237:0.09108246 238:0.0043650748 239:-0.054775413 240:-0.092819454 241:-0.0095696578 242:0.10442571 243:0.11650426 244:0.12022002 245:0.15812712 246:0.10312002 247:0.18118642 248:0.19090198 249:0.099535509 250:0.080488199 251:0.35080696 252:0.41364123 253:0.28362841 254:0.16640804 255:0.27095072 256:0.41065029 257:0.41748876 258:0.28362036 259:0.093914952 260:0.028573525 261:-0.099944459 262:-0.25673894 263:-0.3742187 264:-0.38985477 265:-0.46180962 266:-0.46634543 267:-0.36167262 268:-0.29470871 269:-0.28157208 270:-0.33903493 271:-0.28973489 272:-0.23840829 273:-0.19093383 274:-0.15838332 275:-0.12660107 276:-0.088711981 277:-0.076799858 278:-0.11980774 279:-0.1333482 280:-0.17958853 281:-0.138708 282:-0.065393337 283:-0.11511136 284:-0.10386963 285:-0.14993205 286:-0.082368823 287:0.070635975 288:-0.021913866 289:0.0070547207 290:0.028428042 291:-0.015644824 292:0.13517208 293:0.16563336 294:0.12728332 295:0.099011866 296:0.19616014 297:0.39637846 298:0.38488651 299:0.36826638 300:0.3632718 301:-1.4788371 302:-1.3721533 303:-1.3511927 304:-1.3533624 305:-1.3072507 306:-1.2534909 307:-1.3544701 308:-1.3960933 309:-1.4371661 310:-1.4771097 311:-1.5498337 312:-1.5501867 313:-1.5393525 314:-1.5079268 315:-1.4848481 316:-1.4863857 317:-1.460874 318:-1.3783658 319:-1.3969942 320:-1.5611643 321:-1.5078375 322:-1.1574087 323:-1.0879156 324:-1.3873082 325:-1.6359364 326:-1.6872059 327:-1.6777923 328:-1.7781118 329:-1.8717726 330:-1.9117276 331:-1.8393907 332:-1.9051726 333:-2.1114975 334:-2.1799616 335:-2.365424 336:-2.2649317 337:-2.1511799 338:-2.1771538 339:-2.3840114 340:-2.5205133 341:-2.5196209 342:-2.4000052 343:-2.4334417 344:-2.6695984 345:-2.9532279 346:-2.9018311 347:-2.6513956 348:-2.6475501 349:-2.7876125 350:-3.0740871 351:-3.1831914 352:-3.093863 353:-3.04957 354:-2.9962267 355:-2.9761379 356:-2.8780395 357:-2.9884708 358:-3.0371587 359:-2.9912922 360:-2.9013102 361:-3.0880488 362:-3.5852506 363:-3.8128787 364:-3.4111392 365:-3.3848341 366:-3.4475523 367:-3.3902411 368:-3.4114072 369:-3.6290146 370:-3.5257402 371:-3.3504417 372:-3.3095678 373:-3.1990435 374:-3.201306 375:-3.2651253 376:-3.2613388 377:-3.3618103 378:-3.3860528 379:-3.2640389 380:-3.2885064 381:-3.3650214 382:-3.3998567 383:-3.1430916 384:-3.1156803 385:-3.1132931 386:-3.0831214 387:-2.89832 388:-2.7988015 389:-2.7485571 390:-2.8300218 391:-2.779256 392:-2.6735193 393:-2.6361123 394:-2.6779381 395:-2.7861284 396:-2.7735733 397:-2.6328376 398:-2.6126912 399:-2.6498188 400:-2.7164218 401:-2.62218 402:-2.5370417 403:-2.5765274 404:-2.640312 405:-2.662625 406:-2.5935406 407:-2.6267858 408:-2.6399477 409:-2.7363476 410:-2.8307879 411:-2.7870227 412:-2.4656814 413:-2.3667351 414:-2.6660099 415:-2.7356058 416:-2.7832934 417:-2.7597472 418:-2.7797507 419:-2.7833738 420:-2.8249852 421:-2.7692924 422:-2.6768395 423:-2.5187982 424:-2.5924404 425:-2.6192463 426:-2.6384811 427:-2.6925161 428:-2.6760475 429:-2.6640598 430:-2.6539821 431:-2.7231166 432:-2.634138 433:-2.5773896 434:-2.5662089 435:-2.578833 436:-2.6065398 437:-2.5151552 438:-2.2874112 439:-2.2481916 440:-2.3454879 441:-2.3471829 442:-2.2408976 443:-2.1841428 444:-2.3017204 445:-2.3677543 446:-2.3333873 447:-2.2274773 448:-2.2016432 449:-2.249455 450:-2.2885231 
-0.01345534723734901 1:-0.35601756 2:-0.39387276 3:-0.43864911 4:-0.50783736 5:-0.58777276 6:-0.65164836 7:-0.71329645 8:-0.7737385 9:-0.83033967 10:-0.9088522 11:-0.98019296 12:-1.0239806 13:-1.0637803 14:-1.1045047 15:-1.1850713 16:-1.2396345 17:-1.2903282 18:-1.3710826 19:-1.4430691 20:-1.5136866 21:-1.590872 22:-1.6758387 23:-1.7430505 24:-1.7945024 25:-1.8455154 26:-1.9123248 27:-1.9792326 28:-2.0337775 29:-2.0801666 30:-2.118178 31:-2.1774949 32:-2.2367418 33:-2.2888032 34:-2.3181647 35:-2.3405231 36:-2.3741374 37:-2.3811927 38:-2.3824243 39:-2.3874406 40:-2.367248 41:-2.3431439 42:-2.3399317 43:-2.3360667 44:-2.3325336 45:-2.3222938 46:-2.3281954 47:-2.3260127 48:-2.3256204 49:-2.3163362 50:-2.2952973 51:-2.3064405 52:-2.292554 53:-2.2604174 54:-2.2317194 55:-2.2198921 56:-2.1764508 57:-2.1339836 58:-2.1100008 59:-2.1059009 60:-2.064397 61:-2.0278319 62:-1.9878569 63:-1.9642749 64:-1.9346484 65:-1.9022015 66:-1.8514795 67:-1.8092611 68:-1.7897393 69:-1.7832354 70:-1.7654287 71:-1.7445493 72:-1.7226049 73:-1.7002688 74:-1.6967672 75:-1.6974977 76:-1.6837623 77:-1.677966 78:-1.6503625 79:-1.6112749 80:-1.5855581 81:-1.5544824 82:-1.5141028 83:-1.4903363 84:-1.4744612 85:-1.4314012 86:-1.3786666 87:-1.3233968 88:-1.2906592 89:-1.240903 90:-1.2031567 91:-1.1509729 92:-1.0786655 93:-1.0213474 94:-0.9501292 95:-0.8870562 96:-0.79737281 97:-0.75424763 98:-0.71817081 99:-0.66889475 100:-0.62855264 101:-0.57801927 102:-0.51750035 103:-0.48608119 104:-0.44189445 105:-0.4022819 106:-0.36721717 107:-0.31979743 108:-0.29505445 109:-0.21549037 110:-0.16342223 111:-0.13815924 112:-0.11298704 113:-0.069278874 114:-0.02817549 115:-0.0093500656 116:0.007115802 117:0.020139652 118:0.080517412 119:0.13040897 120:0.17271537 121:0.19580718 122:0.21646861 123:0.25899413 124:0.29809519 125:0.32446489 126:0.32545183 127:0.33023625 128:0.36682348 129:0.41359404 130:0.44703241 131:0.48381644 132:0.53164059 133:0.57655572 134:0.64313293 135:0.71943511 136:0.77638862 137:0.82094638 138:0.85439235 139:0.86927705 140:0.88411349 141:0.87008875 142:0.87487792 143:0.88546283 144:0.86573548 145:0.8559771 146:0.84776673 147:0.83795205 148:0.85693996 149:0.84476787 150:0.85243459 151:1.9770058 152:2.1193862 153:1.9267162 154:1.8536038 155:1.6627604 156:1.6337427 157:1.5428493 158:1.4741962 159:1.5412174 160:1.5097067 161:1.2542197 162:0.99658471 163:0.8627139 164:0.90200999 165:0.89857841 166:0.88382401 167:0.8072205 168:0.89184623 169:0.69124428 170:0.44460114 171:0.24798059 172:0.21450167 173:0.1556052 174:-0.099217773 175:-0.3138129 176:-0.36456955 177:-0.43406085 178:-0.52286117 179:-0.62741328 180:-0.94929764 181:-1.2411653 182:-1.1942769 183:-1.0225602 184:-1.1157376 185:-1.4680412 186:-1.9092008 187:-2.1230995 188:-2.0523275 189:-2.118075 190:-2.2739815 191:-2.3213589 192:-2.1255582 193:-1.8895774 194:-1.7683674 195:-2.0168287 196:-2.4478997 197:-2.4449354 198:-1.9167422 199:-1.7484416 200:-1.6356761 201:-1.848475 202:-1.4936471 203:-1.1707488 204:-1.3425219 205:-1.5839086 206:-1.571471 207:-1.4184903 208:-1.2497858 209:-1.2689927 210:-1.6169953 211:-1.4690646 212:-1.3131894 213:-1.1962444 214:-1.2899397 215:-1.5090832 216:-1.399938 217:-0.96630193 218:-0.70439007 219:-0.78840408 220:-0.85301658 221:-0.71831119 222:-0.44287667 223:-0.36642452 224:-0.45511157 225:-0.44365105 226:-0.29262333 227:-0.16539076 228:-0.24810832 229:-0.34189111 230:-0.2620589 231:0.092387689 232:0.13701847 233:-0.37955805 234:-0.60287056 235:-0.16967349 236:0.29611293 237:0.22597674 238:-0.17296609 239:-0.2137515 240:0.13701919 241:0.31242118 242:-0.11799515 243:-0.37110868 244:0.053715326 245:0.77359193 246:0.60899182 247:-0.23044098 248:-0.43751784 249:0.400006 250:0.58899308 251:0.089558439 252:-0.7872263 253:-0.20044131 254:0.80072492 255:1.1025525 256:0.3461094 257:-0.37655212 258:0.074480137 259:0.82416953 260:1.0999303 261:0.83040273 262:0.31975668 263:0.10280094 264:0.6365983 265:0.86777541 266:0.76534791 267:0.54630482 268:0.37952136 269:0.38003933 270:0.42995545 271:0.51630758 272:0.36747143 273:0.065026309 274:-0.15838332 275:-0.15908424 276:-0.094862678 277:-0.10256497 278:-0.24707434 279:-0.38675408 280:-0.44154095 281:-0.38820793 282:-0.27983635 283:-0.32325037 284:-0.62455284 285:-0.90418794 286:-0.78811987 287:-0.49445183 288:-0.24825708 289:-0.21305256 290:-0.23064814 291:-0.18167153 292:0.016037366 293:0.1976517 294:0.16686904 295:0.045005394 296:-0.14307093 297:-0.33406122 298:-0.25361431 299:-0.47200338 300:-0.83807441 301:1.3258401 302:1.4013136 303:1.173152 304:1.2996443 305:1.391342 306:1.23904 307:1.334844 308:1.4541766 309:1.3708951 310:1.453052 311:1.331091 312:1.2082089 313:1.2057826 314:1.147348 315:1.2816331 316:1.3570653 317:1.1712762 318:1.324834 319:1.4608492 320:1.2961132 321:0.92855528 322:0.8272106 323:0.7289526 324:0.5347818 325:0.38436402 326:0.3035156 327:0.27489905 328:0.36973482 329:0.39125541 330:0.23224442 331:0.13727251 332:0.11947962 333:0.081165759 334:0.020241661 335:-0.18672664 336:-0.55658199 337:-0.67664962 338:-0.58851534 339:-0.73014444 340:-0.79716499 341:-0.74418485 342:-0.65526005 343:-0.49015345 344:-0.39856729 345:-0.33840221 346:-0.11015942 347:-0.10310405 348:-0.10194932 349:-0.26864945 350:-0.14300603 351:-0.1991518 352:-0.29868506 353:-0.19650829 354:-0.24057599 355:-0.12704072 356:-0.18236977 357:-0.12223858 358:-0.0028184666 359:0.24999914 360:-0.042204286 361:0.1155057 362:0.15437757 363:0.27478546 364:0.21406311 365:0.1879188 366:0.1787501 367:0.50143282 368:0.69869494 369:0.63364104 370:0.7113714 371:1.0010684 372:1.013754 373:0.95694766 374:0.9836569 375:1.1183013 376:1.1805868 377:1.0761668 378:1.0116212 379:1.0977596 380:1.1929724 381:1.1009876 382:0.92588962 383:0.98007551 384:1.0651752 385:1.2051988 386:1.1809428 387:1.2076915 388:1.2039711 389:1.2296153 390:1.2651049 391:1.1482171 392:1.1378715 393:1.3355957 394:1.4806969 395:1.4540338 396:1.3893371 397:1.5480455 398:1.6495097 399:1.6693225 400:1.4023962 401:1.3786439 402:1.5350058 403:1.5947417 404:1.4195856 405:1.2285825 406:1.3947263 407:1.4729858 408:1.601766 409:1.7012256 410:1.5282209 411:1.2904943 412:1.340106 413:1.3648017 414:1.5032332 415:1.2780774 416:1.0258209 417:1.1525142 418:1.2470679 419:1.2609518 420:1.0780748 421:0.8826285 422:0.96017949 423:1.0232919 424:0.98244794 425:0.76854975 426:0.57970841 427:0.59794495 428:0.59523136 429:0.52249673 430:0.41409075 431:0.28259889 432:0.17703911 433:0.17693296 434:0.25865428 435:0.24241695 436:0.15400191 437:0.04222824 438:-0.019099527 439:-0.020103407 440:-0.0191153 441:-0.030848266 442:-0.10667869 443:-0.13327393 444:-0.07779482 445:-0.034571126 446:-0.017696689 447:-0.14221691 448:-0.19724887 449:-0.1335235 450:-0.001974425 
-1.212142863097138 1:0.72601571 2:0.72522707 3:0.69899029 4:0.70771114 5:0.68996672 6:0.71029671 7:0.70979745 8:0.7134748 9:0.69971746 10:0.7085065 11:0.7192349 12:0.73099543 13:0.72460749 14:0.71681086 15:0.7299409 16:0.72604473 17:0.71379987 18:0.70776829 19:0.71160971 20:0.684492 21:0.67149095 22:0.65407509 23:0.65494218 24:0.66164784 25:0.68546271 26:0.68380873 27:0.67377993 28:0.66441798 29:0.637963 30:0.62023998 31:0.59115121 32:0.56187976 33:0.54843227 34:0.4993249 35:0.41844057 36:0.32151337 37:0.23334339 38:0.15228797 39:0.080186232 40:0.0123625 41:-0.076675787 42:-0.19631187 43:-0.33260173 44:-0.41359373 45:-0.47761685 46:-0.52598764 47:-0.58140392 48:-0.67513359 49:-0.75168457 50:-0.83789581 51:-0.91638842 52:-1.010949 53:-1.1045433 54:-1.1798772 55:-1.2552684 56:-1.3656825 57:-1.4414753 58:-1.4422869 59:-1.4972777 60:-1.5763608 61:-1.6573744 62:-1.7215253 63:-1.7563977 64:-1.77786 65:-1.800328 66:-1.8013009 67:-1.7982948 68:-1.8070145 69:-1.8260346 70:-1.8611758 71:-1.8763816 72:-1.9026466 73:-1.9077761 74:-1.9045221 75:-1.8842918 76:-1.8351244 77:-1.7881936 78:-1.7462125 79:-1.6991012 80:-1.6619428 81:-1.6298239 82:-1.5967704 83:-1.5564633 84:-1.4983084 85:-1.4348349 86:-1.3786666 87:-1.3164781 88:-1.2472791 89:-1.1627537 90:-1.0785889 91:-1.0026999 92:-0.90552515 93:-0.81273735 94:-0.75733415 95:-0.71085698 96:-0.62222285 97:-0.48930969 98:-0.38209016 99:-0.33555807 100:-0.28434675 101:-0.18561299 102:-0.1054273 103:-0.078400191 104:-0.067561859 105:-0.07582989 106:-0.041583396 107:0.01869547 108:0.054524972 109:0.063764408 110:0.060798246 111:0.093953207 112:0.15508867 113:0.23623362 114:0.27745283 115:0.28584486 116:0.29965433 117:0.34444281 118:0.35890208 119:0.37041103 120:0.37128484 121:0.36989972 122:0.3725361 123:0.39815703 124:0.42572277 125:0.4300207 126:0.46316562 127:0.51482883 128:0.55812821 129:0.59211803 130:0.6353207 131:0.68003241 132:0.69963679 133:0.72039702 134:0.75313045 135:0.78423625 136:0.8250569 137:0.85828824 138:0.87501487 139:0.88430695 140:0.87288391 141:0.85892275 142:0.8470678 143:0.87249893 144:0.89529441 145:0.88347781 146:0.87514348 147:0.85976971 148:0.85152157 149:0.87165813 150:0.86315272 151:-0.63942374 152:-0.59482004 153:-0.67126378 154:-0.62207035 155:-0.58246502 156:-0.31356676 157:-0.37878335 158:-0.4581156 159:-0.52209261 160:-0.54519581 161:-0.6076344 162:-0.57401464 163:-0.53595852 164:-0.64524224 165:-0.64668083 166:-0.52243819 167:-0.38783836 168:-0.27578212 169:-0.35672702 170:-0.38615849 171:-0.2566715 172:-0.11127834 173:-0.005954941 174:-0.035736155 175:-0.064761653 176:0.04061267 177:0.20183706 178:0.22501124 179:0.21427628 180:0.27512281 181:0.42179896 182:0.69709114 183:0.72738816 184:0.43844613 185:0.46177566 186:0.79149423 187:0.92009542 188:0.80451668 189:0.72572804 190:0.87381399 191:1.1922303 192:1.1532933 193:0.73768121 194:0.26681222 195:0.56897702 196:1.1796603 197:0.96361183 198:0.4250484 199:0.50567154 200:0.40016871 201:0.49466233 202:-0.070632975 203:-0.55475708 204:-0.43133232 205:-0.17037232 206:-0.25458837 207:-0.38843667 208:-0.40615904 209:-0.35169543 210:-0.1957566 211:-0.51514206 212:-0.91150791 213:-1.3084733 214:-1.7724502 215:-2.145563 216:-2.5942354 217:-2.8501998 218:-2.7071326 219:-2.4579657 220:-2.6017006 221:-2.6175747 222:-2.3620089 223:-1.8891335 224:-1.7416727 225:-1.5247126 226:-1.1025292 227:-0.65958822 228:-0.94142037 229:-0.98213992 230:-0.42290714 231:0.28279646 232:0.018021219 233:-0.72397184 234:-0.35922339 235:0.65837709 236:0.76747636 237:-0.081282449 238:-0.18715258 239:0.740105 240:1.1780531 241:0.91249502 242:0.25014971 243:0.485908 244:1.1621268 245:1.7255109 246:1.216038 247:-0.11610004 248:0.76606588 249:2.05744 250:2.3785391 251:1.0777594 252:0.38175979 253:1.5813472 254:2.4480553 255:2.182679 256:1.1574806 257:0.67935331 258:1.4300186 259:1.9956196 260:2.0539853 261:1.6404464 262:1.0024489 263:1.2007033 264:1.5106873 265:1.4387628 266:0.88531804 267:0.26206841 268:0.45884255 269:0.66769647 270:0.51539882 271:0.29784747 272:0.025693124 273:-0.062953758 274:-0.060336502 275:-0.0020822545 276:-0.14406826 277:-0.34733355 278:-0.28949654 279:-0.19669967 280:-0.29091831 281:-0.61502605 282:-0.83126125 283:-0.68211072 284:-0.5204162 285:-0.53826182 286:-0.65832658 287:-0.71882493 288:-0.58386943 289:-0.46250749 290:-0.39828567 291:-0.3643009 292:-0.32434754 293:-0.3706739 294:-0.50608822 295:-0.58507012 296:-0.80983544 297:-1.0645009 298:-1.1359063 299:-1.0114358 300:-1.0244902 301:-0.6214667 302:-0.5977858 303:-0.64306482 304:-0.61827239 305:-0.53720638 306:-0.49197746 307:-0.68903727 308:-0.56958304 309:-0.62610863 310:-0.59471027 311:-0.46902107 312:-0.47910759 313:-0.38549075 314:-0.56597178 315:-0.25356913 316:-0.18711536 317:-0.2484897 318:-0.2882361 319:-0.42852685 320:-0.46058337 321:-0.37269994 322:-0.21341376 323:0.045036437 324:0.23377525 325:0.3087378 326:0.37856973 327:0.51102104 328:0.63448676 329:0.73913189 330:0.84694968 331:1.0958948 332:1.3402811 333:1.3404888 334:1.2697398 335:1.4430076 336:1.6089318 337:1.4828237 338:1.4532005 339:1.6215335 340:1.7359842 341:1.651792 342:1.5387639 343:1.3824221 344:1.3588737 345:1.4460008 346:1.4755565 347:1.3480439 348:1.3297869 349:1.3345712 350:1.1405762 351:0.93581503 352:0.89447275 353:0.69490915 354:0.8384276 355:0.85050873 356:0.69683328 357:0.61869221 358:0.57799442 359:0.56311136 360:0.55826892 361:0.36011934 362:0.037593526 363:-0.39170759 364:-0.89475897 365:-1.0456331 366:-1.0508582 367:-1.0645512 368:-0.7063187 369:-0.40424837 370:-0.3043543 371:-0.3458967 372:-0.40245894 373:-0.40467936 374:-0.25806566 375:0.10177659 376:0.26654432 377:0.30684443 378:0.34588096 379:0.69302846 380:1.1345909 381:1.1038689 382:0.96378727 383:1.1118061 384:1.3332124 385:1.2908726 386:1.1077981 387:1.2569118 388:1.3890429 389:1.4178497 390:1.1860762 391:1.1457927 392:1.2717281 393:1.4793679 394:1.3645466 395:0.96888936 396:1.0258499 397:1.3446133 398:1.4528631 399:1.4212559 400:1.1943996 401:1.4257956 402:1.5032284 403:1.5444028 404:1.4406699 405:1.3927277 406:1.399543 407:1.3034737 408:1.294224 409:1.2076106 410:1.0049337 411:1.0959706 412:1.0514837 413:1.0913977 414:1.0381934 415:1.0317503 416:1.0937061 417:0.9831629 418:0.95416365 419:0.80856086 420:0.69542188 421:0.62038949 422:0.53836028 423:0.47589874 424:0.38310769 425:0.25752866 426:0.24998514 427:0.21501324 428:0.099307305 429:-0.014356253 430:0.13538795 431:0.29219415 432:0.18389564 433:0.040114006 434:0.012234813 435:0.062530963 436:0.036776576 437:-0.08497146 438:-0.22320549 439:-0.20253197 440:-0.038149257 441:-0.032987079 442:-0.29116912 443:-0.38912888 444:-0.28911806 445:-0.12594351 446:-0.11922417 447:-0.13180102 448:-0.20950816 449:-0.27362413 450:-0.14314581 
